{"learner":{"attributes":{"scikit_learn":"{\"_estimator_type\": \"regressor\"}"},"feature_names":["keyPredictionFeatures bedrooms","keyPredictionFeatures bathrooms","keyPredictionFeatures sqFt","keyPredictionFeatures lotSize","keyPredictionFeatures yearBuilt","keyPredictionFeatures features_floorCount","keyPredictionFeatures features_roomCount","keyPredictionFeatures saleYear","keyPredictionFeatures availableValueHomePriceIndex","auxiliaryPredictionFeatures latitude","auxiliaryPredictionFeatures longitude","auxiliaryPredictionFeatures features_garageSpaces","auxiliaryPredictionFeatures features_cooling_True","auxiliaryPredictionFeatures features_cooling_nan","auxiliaryPredictionFeatures features_coolingType_Central","auxiliaryPredictionFeatures features_coolingType_nan","auxiliaryPredictionFeatures features_exteriorType_AluminumVinylSiding","auxiliaryPredictionFeatures features_exteriorType_Brick","auxiliaryPredictionFeatures features_exteriorType_BrickStone","auxiliaryPredictionFeatures features_exteriorType_Composition","auxiliaryPredictionFeatures features_exteriorType_Other","auxiliaryPredictionFeatures features_exteriorType_Stone","auxiliaryPredictionFeatures features_exteriorType_StoneVeneer","auxiliaryPredictionFeatures features_exteriorType_Stucco","auxiliaryPredictionFeatures features_exteriorType_Wood","auxiliaryPredictionFeatures features_exteriorType_nan","auxiliaryPredictionFeatures features_fireplace_True","auxiliaryPredictionFeatures features_fireplace_nan","auxiliaryPredictionFeatures features_foundationType_Block","auxiliaryPredictionFeatures features_foundationType_Other","auxiliaryPredictionFeatures features_foundationType_Raised","auxiliaryPredictionFeatures features_foundationType_Stone","auxiliaryPredictionFeatures features_foundationType_Wood","auxiliaryPredictionFeatures features_foundationType_nan","auxiliaryPredictionFeatures features_garage_True","auxiliaryPredictionFeatures features_garage_nan","auxiliaryPredictionFeatures features_garageType_Attached","auxiliaryPredictionFeatures features_garageType_Basement","auxiliaryPredictionFeatures features_garageType_Carport","auxiliaryPredictionFeatures features_garageType_Detached","auxiliaryPredictionFeatures features_garageType_Garage","auxiliaryPredictionFeatures features_garageType_Mixed","auxiliaryPredictionFeatures features_garageType_nan","auxiliaryPredictionFeatures features_roofType_Asphalt","auxiliaryPredictionFeatures features_roofType_Metal","auxiliaryPredictionFeatures features_roofType_Other","auxiliaryPredictionFeatures features_roofType_RollComposition","auxiliaryPredictionFeatures features_roofType_Slate","auxiliaryPredictionFeatures features_roofType_WoodShingle","auxiliaryPredictionFeatures features_roofType_nan","auxiliaryPredictionFeatures features_architectureType_BiLevel","auxiliaryPredictionFeatures features_architectureType_Bungalow","auxiliaryPredictionFeatures features_architectureType_CapeCod","auxiliaryPredictionFeatures features_architectureType_Colonial","auxiliaryPredictionFeatures features_architectureType_Contemporary","auxiliaryPredictionFeatures features_architectureType_Cottage","auxiliaryPredictionFeatures features_architectureType_Duplex","auxiliaryPredictionFeatures features_architectureType_Modern","auxiliaryPredictionFeatures features_architectureType_Other","auxiliaryPredictionFeatures features_architectureType_Ranch","auxiliaryPredictionFeatures features_architectureType_Spanish","auxiliaryPredictionFeatures features_architectureType_SplitLevel","auxiliaryPredictionFeatures features_architectureType_Traditional","auxiliaryPredictionFeatures features_architectureType_Tudor","auxiliaryPredictionFeatures features_architectureType_Victorian","auxiliaryPredictionFeatures features_architectureType_nan","auxiliaryPredictionFeatures features_viewType_CornerAverage","auxiliaryPredictionFeatures features_viewType_nan","auxiliaryPredictionFeatures features_heating_True","auxiliaryPredictionFeatures features_heating_nan","auxiliaryPredictionFeatures features_heatingType_Central","auxiliaryPredictionFeatures features_heatingType_ForcedAir","auxiliaryPredictionFeatures features_heatingType_HotWater","auxiliaryPredictionFeatures features_heatingType_nan","auxiliaryPredictionFeatures features_pool_True","auxiliaryPredictionFeatures features_pool_nan","auxiliaryPredictionFeatures features_poolType_InGroundVinylPool","auxiliaryPredictionFeatures features_poolType_PoolandHotTubSpa","auxiliaryPredictionFeatures features_poolType_nan","auxiliaryPredictionFeatures features_fireplaceType_Other","auxiliaryPredictionFeatures features_fireplaceType_nan","auxiliaryPredictionFeatures features_garageSpaces_nan","auxiliaryPredictionFeatures saleMonth"],"feature_types":["float","float","float","float","float","float","float","int","float","float","float","float","i","i","i","i","i","i","i","i","i","i","i","i","i","i","i","i","i","i","i","i","i","i","i","i","i","i","i","i","i","i","i","i","i","i","i","i","i","i","i","i","i","i","i","i","i","i","i","i","i","i","i","i","i","i","i","i","i","i","i","i","i","i","i","i","i","i","i","i","i","i","int"],"gradient_booster":{"model":{"cats":{"enc":[],"feature_segments":[],"sorted_idx":[]},"gbtree_model_param":{"num_parallel_tree":"1","num_trees":"5000"},"iteration_indptr":[0,1,2,3,4,5,6,7,8,9,10,11,12,13,14,15,16,17,18,19,20,21,22,23,24,25,26,27,28,29,30,31,32,33,34,35,36,37,38,39,40,41,42,43,44,45,46,47,48,49,50,51,52,53,54,55,56,57,58,59,60,61,62,63,64,65,66,67,68,69,70,71,72,73,74,75,76,77,78,79,80,81,82,83,84,85,86,87,88,89,90,91,92,93,94,95,96,97,98,99,100,101,102,103,104,105,106,107,108,109,110,111,112,113,114,115,116,117,118,119,120,121,122,123,124,125,126,127,128,129,130,131,132,133,134,135,136,137,138,139,140,141,142,143,144,145,146,147,148,149,150,151,152,153,154,155,156,157,158,159,160,161,162,163,164,165,166,167,168,169,170,171,172,173,174,175,176,177,178,179,180,181,182,183,184,185,186,187,188,189,190,191,192,193,194,195,196,197,198,199,200,201,202,203,204,205,206,207,208,209,210,211,212,213,214,215,216,217,218,219,220,221,222,223,224,225,226,227,228,229,230,231,232,233,234,235,236,237,238,239,240,241,242,243,244,245,246,247,248,249,250,251,252,253,254,255,256,257,258,259,260,261,262,263,264,265,266,267,268,269,270,271,272,273,274,275,276,277,278,279,280,281,282,283,284,285,286,287,288,289,290,291,292,293,294,295,296,297,298,299,300,301,302,303,304,305,306,307,308,309,310,311,312,313,314,315,316,317,318,319,320,321,322,323,324,325,326,327,328,329,330,331,332,333,334,335,336,337,338,339,340,341,342,343,344,345,346,347,348,349,350,351,352,353,354,355,356,357,358,359,360,361,362,363,364,365,366,367,368,369,370,371,372,373,374,375,376,377,378,379,380,381,382,383,384,385,386,387,388,389,390,391,392,393,394,395,396,397,398,399,400,401,402,403,404,405,406,407,408,409,410,411,412,413,414,415,416,417,418,419,420,421,422,423,424,425,426,427,428,429,430,431,432,433,434,435,436,437,438,439,440,441,442,443,444,445,446,447,448,449,450,451,452,453,454,455,456,457,458,459,460,461,462,463,464,465,466,467,468,469,470,471,472,473,474,475,476,477,478,479,480,481,482,483,484,485,486,487,488,489,490,491,492,493,494,495,496,497,498,499,500,501,502,503,504,505,506,507,508,509,510,511,512,513,514,515,516,517,518,519,520,521,522,523,524,525,526,527,528,529,530,531,532,533,534,535,536,537,538,539,540,541,542,543,544,545,546,547,548,549,550,551,552,553,554,555,556,557,558,559,560,561,562,563,564,565,566,567,568,569,570,571,572,573,574,575,576,577,578,579,580,581,582,583,584,585,586,587,588,589,590,591,592,593,594,595,596,597,598,599,600,601,602,603,604,605,606,607,608,609,610,611,612,613,614,615,616,617,618,619,620,621,622,623,624,625,626,627,628,629,630,631,632,633,634,635,636,637,638,639,640,641,642,643,644,645,646,647,648,649,650,651,652,653,654,655,656,657,658,659,660,661,662,663,664,665,666,667,668,669,670,671,672,673,674,675,676,677,678,679,680,681,682,683,684,685,686,687,688,689,690,691,692,693,694,695,696,697,698,699,700,701,702,703,704,705,706,707,708,709,710,711,712,713,714,715,716,717,718,719,720,721,722,723,724,725,726,727,728,729,730,731,732,733,734,735,736,737,738,739,740,741,742,743,744,745,746,747,748,749,750,751,752,753,754,755,756,757,758,759,760,761,762,763,764,765,766,767,768,769,770,771,772,773,774,775,776,777,778,779,780,781,782,783,784,785,786,787,788,789,790,791,792,793,794,795,796,797,798,799,800,801,802,803,804,805,806,807,808,809,810,811,812,813,814,815,816,817,818,819,820,821,822,823,824,825,826,827,828,829,830,831,832,833,834,835,836,837,838,839,840,841,842,843,844,845,846,847,848,849,850,851,852,853,854,855,856,857,858,859,860,861,862,863,864,865,866,867,868,869,870,871,872,873,874,875,876,877,878,879,880,881,882,883,884,885,886,887,888,889,890,891,892,893,894,895,896,897,898,899,900,901,902,903,904,905,906,907,908,909,910,911,912,913,914,915,916,917,918,919,920,921,922,923,924,925,926,927,928,929,930,931,932,933,934,935,936,937,938,939,940,941,942,943,944,945,946,947,948,949,950,951,952,953,954,955,956,957,958,959,960,961,962,963,964,965,966,967,968,969,970,971,972,973,974,975,976,977,978,979,980,981,982,983,984,985,986,987,988,989,990,991,992,993,994,995,996,997,998,999,1000,1001,1002,1003,1004,1005,1006,1007,1008,1009,1010,1011,1012,1013,1014,1015,1016,1017,1018,1019,1020,1021,1022,1023,1024,1025,1026,1027,1028,1029,1030,1031,1032,1033,1034,1035,1036,1037,1038,1039,1040,1041,1042,1043,1044,1045,1046,1047,1048,1049,1050,1051,1052,1053,1054,1055,1056,1057,1058,1059,1060,1061,1062,1063,1064,1065,1066,1067,1068,1069,1070,1071,1072,1073,1074,1075,1076,1077,1078,1079,1080,1081,1082,1083,1084,1085,1086,1087,1088,1089,1090,1091,1092,1093,1094,1095,1096,1097,1098,1099,1100,1101,1102,1103,1104,1105,1106,1107,1108,1109,1110,1111,1112,1113,1114,1115,1116,1117,1118,1119,1120,1121,1122,1123,1124,1125,1126,1127,1128,1129,1130,1131,1132,1133,1134,1135,1136,1137,1138,1139,1140,1141,1142,1143,1144,1145,1146,1147,1148,1149,1150,1151,1152,1153,1154,1155,1156,1157,1158,1159,1160,1161,1162,1163,1164,1165,1166,1167,1168,1169,1170,1171,1172,1173,1174,1175,1176,1177,1178,1179,1180,1181,1182,1183,1184,1185,1186,1187,1188,1189,1190,1191,1192,1193,1194,1195,1196,1197,1198,1199,1200,1201,1202,1203,1204,1205,1206,1207,1208,1209,1210,1211,1212,1213,1214,1215,1216,1217,1218,1219,1220,1221,1222,1223,1224,1225,1226,1227,1228,1229,1230,1231,1232,1233,1234,1235,1236,1237,1238,1239,1240,1241,1242,1243,1244,1245,1246,1247,1248,1249,1250,1251,1252,1253,1254,1255,1256,1257,1258,1259,1260,1261,1262,1263,1264,1265,1266,1267,1268,1269,1270,1271,1272,1273,1274,1275,1276,1277,1278,1279,1280,1281,1282,1283,1284,1285,1286,1287,1288,1289,1290,1291,1292,1293,1294,1295,1296,1297,1298,1299,1300,1301,1302,1303,1304,1305,1306,1307,1308,1309,1310,1311,1312,1313,1314,1315,1316,1317,1318,1319,1320,1321,1322,1323,1324,1325,1326,1327,1328,1329,1330,1331,1332,1333,1334,1335,1336,1337,1338,1339,1340,1341,1342,1343,1344,1345,1346,1347,1348,1349,1350,1351,1352,1353,1354,1355,1356,1357,1358,1359,1360,1361,1362,1363,1364,1365,1366,1367,1368,1369,1370,1371,1372,1373,1374,1375,1376,1377,1378,1379,1380,1381,1382,1383,1384,1385,1386,1387,1388,1389,1390,1391,1392,1393,1394,1395,1396,1397,1398,1399,1400,1401,1402,1403,1404,1405,1406,1407,1408,1409,1410,1411,1412,1413,1414,1415,1416,1417,1418,1419,1420,1421,1422,1423,1424,1425,1426,1427,1428,1429,1430,1431,1432,1433,1434,1435,1436,1437,1438,1439,1440,1441,1442,1443,1444,1445,1446,1447,1448,1449,1450,1451,1452,1453,1454,1455,1456,1457,1458,1459,1460,1461,1462,1463,1464,1465,1466,1467,1468,1469,1470,1471,1472,1473,1474,1475,1476,1477,1478,1479,1480,1481,1482,1483,1484,1485,1486,1487,1488,1489,1490,1491,1492,1493,1494,1495,1496,1497,1498,1499,1500,1501,1502,1503,1504,1505,1506,1507,1508,1509,1510,1511,1512,1513,1514,1515,1516,1517,1518,1519,1520,1521,1522,1523,1524,1525,1526,1527,1528,1529,1530,1531,1532,1533,1534,1535,1536,1537,1538,1539,1540,1541,1542,1543,1544,1545,1546,1547,1548,1549,1550,1551,1552,1553,1554,1555,1556,1557,1558,1559,1560,1561,1562,1563,1564,1565,1566,1567,1568,1569,1570,1571,1572,1573,1574,1575,1576,1577,1578,1579,1580,1581,1582,1583,1584,1585,1586,1587,1588,1589,1590,1591,1592,1593,1594,1595,1596,1597,1598,1599,1600,1601,1602,1603,1604,1605,1606,1607,1608,1609,1610,1611,1612,1613,1614,1615,1616,1617,1618,1619,1620,1621,1622,1623,1624,1625,1626,1627,1628,1629,1630,1631,1632,1633,1634,1635,1636,1637,1638,1639,1640,1641,1642,1643,1644,1645,1646,1647,1648,1649,1650,1651,1652,1653,1654,1655,1656,1657,1658,1659,1660,1661,1662,1663,1664,1665,1666,1667,1668,1669,1670,1671,1672,1673,1674,1675,1676,1677,1678,1679,1680,1681,1682,1683,1684,1685,1686,1687,1688,1689,1690,1691,1692,1693,1694,1695,1696,1697,1698,1699,1700,1701,1702,1703,1704,1705,1706,1707,1708,1709,1710,1711,1712,1713,1714,1715,1716,1717,1718,1719,1720,1721,1722,1723,1724,1725,1726,1727,1728,1729,1730,1731,1732,1733,1734,1735,1736,1737,1738,1739,1740,1741,1742,1743,1744,1745,1746,1747,1748,1749,1750,1751,1752,1753,1754,1755,1756,1757,1758,1759,1760,1761,1762,1763,1764,1765,1766,1767,1768,1769,1770,1771,1772,1773,1774,1775,1776,1777,1778,1779,1780,1781,1782,1783,1784,1785,1786,1787,1788,1789,1790,1791,1792,1793,1794,1795,1796,1797,1798,1799,1800,1801,1802,1803,1804,1805,1806,1807,1808,1809,1810,1811,1812,1813,1814,1815,1816,1817,1818,1819,1820,1821,1822,1823,1824,1825,1826,1827,1828,1829,1830,1831,1832,1833,1834,1835,1836,1837,1838,1839,1840,1841,1842,1843,1844,1845,1846,1847,1848,1849,1850,1851,1852,1853,1854,1855,1856,1857,1858,1859,1860,1861,1862,1863,1864,1865,1866,1867,1868,1869,1870,1871,1872,1873,1874,1875,1876,1877,1878,1879,1880,1881,1882,1883,1884,1885,1886,1887,1888,1889,1890,1891,1892,1893,1894,1895,1896,1897,1898,1899,1900,1901,1902,1903,1904,1905,1906,1907,1908,1909,1910,1911,1912,1913,1914,1915,1916,1917,1918,1919,1920,1921,1922,1923,1924,1925,1926,1927,1928,1929,1930,1931,1932,1933,1934,1935,1936,1937,1938,1939,1940,1941,1942,1943,1944,1945,1946,1947,1948,1949,1950,1951,1952,1953,1954,1955,1956,1957,1958,1959,1960,1961,1962,1963,1964,1965,1966,1967,1968,1969,1970,1971,1972,1973,1974,1975,1976,1977,1978,1979,1980,1981,1982,1983,1984,1985,1986,1987,1988,1989,1990,1991,1992,1993,1994,1995,1996,1997,1998,1999,2000,2001,2002,2003,2004,2005,2006,2007,2008,2009,2010,2011,2012,2013,2014,2015,2016,2017,2018,2019,2020,2021,2022,2023,2024,2025,2026,2027,2028,2029,2030,2031,2032,2033,2034,2035,2036,2037,2038,2039,2040,2041,2042,2043,2044,2045,2046,2047,2048,2049,2050,2051,2052,2053,2054,2055,2056,2057,2058,2059,2060,2061,2062,2063,2064,2065,2066,2067,2068,2069,2070,2071,2072,2073,2074,2075,2076,2077,2078,2079,2080,2081,2082,2083,2084,2085,2086,2087,2088,2089,2090,2091,2092,2093,2094,2095,2096,2097,2098,2099,2100,2101,2102,2103,2104,2105,2106,2107,2108,2109,2110,2111,2112,2113,2114,2115,2116,2117,2118,2119,2120,2121,2122,2123,2124,2125,2126,2127,2128,2129,2130,2131,2132,2133,2134,2135,2136,2137,2138,2139,2140,2141,2142,2143,2144,2145,2146,2147,2148,2149,2150,2151,2152,2153,2154,2155,2156,2157,2158,2159,2160,2161,2162,2163,2164,2165,2166,2167,2168,2169,2170,2171,2172,2173,2174,2175,2176,2177,2178,2179,2180,2181,2182,2183,2184,2185,2186,2187,2188,2189,2190,2191,2192,2193,2194,2195,2196,2197,2198,2199,2200,2201,2202,2203,2204,2205,2206,2207,2208,2209,2210,2211,2212,2213,2214,2215,2216,2217,2218,2219,2220,2221,2222,2223,2224,2225,2226,2227,2228,2229,2230,2231,2232,2233,2234,2235,2236,2237,2238,2239,2240,2241,2242,2243,2244,2245,2246,2247,2248,2249,2250,2251,2252,2253,2254,2255,2256,2257,2258,2259,2260,2261,2262,2263,2264,2265,2266,2267,2268,2269,2270,2271,2272,2273,2274,2275,2276,2277,2278,2279,2280,2281,2282,2283,2284,2285,2286,2287,2288,2289,2290,2291,2292,2293,2294,2295,2296,2297,2298,2299,2300,2301,2302,2303,2304,2305,2306,2307,2308,2309,2310,2311,2312,2313,2314,2315,2316,2317,2318,2319,2320,2321,2322,2323,2324,2325,2326,2327,2328,2329,2330,2331,2332,2333,2334,2335,2336,2337,2338,2339,2340,2341,2342,2343,2344,2345,2346,2347,2348,2349,2350,2351,2352,2353,2354,2355,2356,2357,2358,2359,2360,2361,2362,2363,2364,2365,2366,2367,2368,2369,2370,2371,2372,2373,2374,2375,2376,2377,2378,2379,2380,2381,2382,2383,2384,2385,2386,2387,2388,2389,2390,2391,2392,2393,2394,2395,2396,2397,2398,2399,2400,2401,2402,2403,2404,2405,2406,2407,2408,2409,2410,2411,2412,2413,2414,2415,2416,2417,2418,2419,2420,2421,2422,2423,2424,2425,2426,2427,2428,2429,2430,2431,2432,2433,2434,2435,2436,2437,2438,2439,2440,2441,2442,2443,2444,2445,2446,2447,2448,2449,2450,2451,2452,2453,2454,2455,2456,2457,2458,2459,2460,2461,2462,2463,2464,2465,2466,2467,2468,2469,2470,2471,2472,2473,2474,2475,2476,2477,2478,2479,2480,2481,2482,2483,2484,2485,2486,2487,2488,2489,2490,2491,2492,2493,2494,2495,2496,2497,2498,2499,2500,2501,2502,2503,2504,2505,2506,2507,2508,2509,2510,2511,2512,2513,2514,2515,2516,2517,2518,2519,2520,2521,2522,2523,2524,2525,2526,2527,2528,2529,2530,2531,2532,2533,2534,2535,2536,2537,2538,2539,2540,2541,2542,2543,2544,2545,2546,2547,2548,2549,2550,2551,2552,2553,2554,2555,2556,2557,2558,2559,2560,2561,2562,2563,2564,2565,2566,2567,2568,2569,2570,2571,2572,2573,2574,2575,2576,2577,2578,2579,2580,2581,2582,2583,2584,2585,2586,2587,2588,2589,2590,2591,2592,2593,2594,2595,2596,2597,2598,2599,2600,2601,2602,2603,2604,2605,2606,2607,2608,2609,2610,2611,2612,2613,2614,2615,2616,2617,2618,2619,2620,2621,2622,2623,2624,2625,2626,2627,2628,2629,2630,2631,2632,2633,2634,2635,2636,2637,2638,2639,2640,2641,2642,2643,2644,2645,2646,2647,2648,2649,2650,2651,2652,2653,2654,2655,2656,2657,2658,2659,2660,2661,2662,2663,2664,2665,2666,2667,2668,2669,2670,2671,2672,2673,2674,2675,2676,2677,2678,2679,2680,2681,2682,2683,2684,2685,2686,2687,2688,2689,2690,2691,2692,2693,2694,2695,2696,2697,2698,2699,2700,2701,2702,2703,2704,2705,2706,2707,2708,2709,2710,2711,2712,2713,2714,2715,2716,2717,2718,2719,2720,2721,2722,2723,2724,2725,2726,2727,2728,2729,2730,2731,2732,2733,2734,2735,2736,2737,2738,2739,2740,2741,2742,2743,2744,2745,2746,2747,2748,2749,2750,2751,2752,2753,2754,2755,2756,2757,2758,2759,2760,2761,2762,2763,2764,2765,2766,2767,2768,2769,2770,2771,2772,2773,2774,2775,2776,2777,2778,2779,2780,2781,2782,2783,2784,2785,2786,2787,2788,2789,2790,2791,2792,2793,2794,2795,2796,2797,2798,2799,2800,2801,2802,2803,2804,2805,2806,2807,2808,2809,2810,2811,2812,2813,2814,2815,2816,2817,2818,2819,2820,2821,2822,2823,2824,2825,2826,2827,2828,2829,2830,2831,2832,2833,2834,2835,2836,2837,2838,2839,2840,2841,2842,2843,2844,2845,2846,2847,2848,2849,2850,2851,2852,2853,2854,2855,2856,2857,2858,2859,2860,2861,2862,2863,2864,2865,2866,2867,2868,2869,2870,2871,2872,2873,2874,2875,2876,2877,2878,2879,2880,2881,2882,2883,2884,2885,2886,2887,2888,2889,2890,2891,2892,2893,2894,2895,2896,2897,2898,2899,2900,2901,2902,2903,2904,2905,2906,2907,2908,2909,2910,2911,2912,2913,2914,2915,2916,2917,2918,2919,2920,2921,2922,2923,2924,2925,2926,2927,2928,2929,2930,2931,2932,2933,2934,2935,2936,2937,2938,2939,2940,2941,2942,2943,2944,2945,2946,2947,2948,2949,2950,2951,2952,2953,2954,2955,2956,2957,2958,2959,2960,2961,2962,2963,2964,2965,2966,2967,2968,2969,2970,2971,2972,2973,2974,2975,2976,2977,2978,2979,2980,2981,2982,2983,2984,2985,2986,2987,2988,2989,2990,2991,2992,2993,2994,2995,2996,2997,2998,2999,3000,3001,3002,3003,3004,3005,3006,3007,3008,3009,3010,3011,3012,3013,3014,3015,3016,3017,3018,3019,3020,3021,3022,3023,3024,3025,3026,3027,3028,3029,3030,3031,3032,3033,3034,3035,3036,3037,3038,3039,3040,3041,3042,3043,3044,3045,3046,3047,3048,3049,3050,3051,3052,3053,3054,3055,3056,3057,3058,3059,3060,3061,3062,3063,3064,3065,3066,3067,3068,3069,3070,3071,3072,3073,3074,3075,3076,3077,3078,3079,3080,3081,3082,3083,3084,3085,3086,3087,3088,3089,3090,3091,3092,3093,3094,3095,3096,3097,3098,3099,3100,3101,3102,3103,3104,3105,3106,3107,3108,3109,3110,3111,3112,3113,3114,3115,3116,3117,3118,3119,3120,3121,3122,3123,3124,3125,3126,3127,3128,3129,3130,3131,3132,3133,3134,3135,3136,3137,3138,3139,3140,3141,3142,3143,3144,3145,3146,3147,3148,3149,3150,3151,3152,3153,3154,3155,3156,3157,3158,3159,3160,3161,3162,3163,3164,3165,3166,3167,3168,3169,3170,3171,3172,3173,3174,3175,3176,3177,3178,3179,3180,3181,3182,3183,3184,3185,3186,3187,3188,3189,3190,3191,3192,3193,3194,3195,3196,3197,3198,3199,3200,3201,3202,3203,3204,3205,3206,3207,3208,3209,3210,3211,3212,3213,3214,3215,3216,3217,3218,3219,3220,3221,3222,3223,3224,3225,3226,3227,3228,3229,3230,3231,3232,3233,3234,3235,3236,3237,3238,3239,3240,3241,3242,3243,3244,3245,3246,3247,3248,3249,3250,3251,3252,3253,3254,3255,3256,3257,3258,3259,3260,3261,3262,3263,3264,3265,3266,3267,3268,3269,3270,3271,3272,3273,3274,3275,3276,3277,3278,3279,3280,3281,3282,3283,3284,3285,3286,3287,3288,3289,3290,3291,3292,3293,3294,3295,3296,3297,3298,3299,3300,3301,3302,3303,3304,3305,3306,3307,3308,3309,3310,3311,3312,3313,3314,3315,3316,3317,3318,3319,3320,3321,3322,3323,3324,3325,3326,3327,3328,3329,3330,3331,3332,3333,3334,3335,3336,3337,3338,3339,3340,3341,3342,3343,3344,3345,3346,3347,3348,3349,3350,3351,3352,3353,3354,3355,3356,3357,3358,3359,3360,3361,3362,3363,3364,3365,3366,3367,3368,3369,3370,3371,3372,3373,3374,3375,3376,3377,3378,3379,3380,3381,3382,3383,3384,3385,3386,3387,3388,3389,3390,3391,3392,3393,3394,3395,3396,3397,3398,3399,3400,3401,3402,3403,3404,3405,3406,3407,3408,3409,3410,3411,3412,3413,3414,3415,3416,3417,3418,3419,3420,3421,3422,3423,3424,3425,3426,3427,3428,3429,3430,3431,3432,3433,3434,3435,3436,3437,3438,3439,3440,3441,3442,3443,3444,3445,3446,3447,3448,3449,3450,3451,3452,3453,3454,3455,3456,3457,3458,3459,3460,3461,3462,3463,3464,3465,3466,3467,3468,3469,3470,3471,3472,3473,3474,3475,3476,3477,3478,3479,3480,3481,3482,3483,3484,3485,3486,3487,3488,3489,3490,3491,3492,3493,3494,3495,3496,3497,3498,3499,3500,3501,3502,3503,3504,3505,3506,3507,3508,3509,3510,3511,3512,3513,3514,3515,3516,3517,3518,3519,3520,3521,3522,3523,3524,3525,3526,3527,3528,3529,3530,3531,3532,3533,3534,3535,3536,3537,3538,3539,3540,3541,3542,3543,3544,3545,3546,3547,3548,3549,3550,3551,3552,3553,3554,3555,3556,3557,3558,3559,3560,3561,3562,3563,3564,3565,3566,3567,3568,3569,3570,3571,3572,3573,3574,3575,3576,3577,3578,3579,3580,3581,3582,3583,3584,3585,3586,3587,3588,3589,3590,3591,3592,3593,3594,3595,3596,3597,3598,3599,3600,3601,3602,3603,3604,3605,3606,3607,3608,3609,3610,3611,3612,3613,3614,3615,3616,3617,3618,3619,3620,3621,3622,3623,3624,3625,3626,3627,3628,3629,3630,3631,3632,3633,3634,3635,3636,3637,3638,3639,3640,3641,3642,3643,3644,3645,3646,3647,3648,3649,3650,3651,3652,3653,3654,3655,3656,3657,3658,3659,3660,3661,3662,3663,3664,3665,3666,3667,3668,3669,3670,3671,3672,3673,3674,3675,3676,3677,3678,3679,3680,3681,3682,3683,3684,3685,3686,3687,3688,3689,3690,3691,3692,3693,3694,3695,3696,3697,3698,3699,3700,3701,3702,3703,3704,3705,3706,3707,3708,3709,3710,3711,3712,3713,3714,3715,3716,3717,3718,3719,3720,3721,3722,3723,3724,3725,3726,3727,3728,3729,3730,3731,3732,3733,3734,3735,3736,3737,3738,3739,3740,3741,3742,3743,3744,3745,3746,3747,3748,3749,3750,3751,3752,3753,3754,3755,3756,3757,3758,3759,3760,3761,3762,3763,3764,3765,3766,3767,3768,3769,3770,3771,3772,3773,3774,3775,3776,3777,3778,3779,3780,3781,3782,3783,3784,3785,3786,3787,3788,3789,3790,3791,3792,3793,3794,3795,3796,3797,3798,3799,3800,3801,3802,3803,3804,3805,3806,3807,3808,3809,3810,3811,3812,3813,3814,3815,3816,3817,3818,3819,3820,3821,3822,3823,3824,3825,3826,3827,3828,3829,3830,3831,3832,3833,3834,3835,3836,3837,3838,3839,3840,3841,3842,3843,3844,3845,3846,3847,3848,3849,3850,3851,3852,3853,3854,3855,3856,3857,3858,3859,3860,3861,3862,3863,3864,3865,3866,3867,3868,3869,3870,3871,3872,3873,3874,3875,3876,3877,3878,3879,3880,3881,3882,3883,3884,3885,3886,3887,3888,3889,3890,3891,3892,3893,3894,3895,3896,3897,3898,3899,3900,3901,3902,3903,3904,3905,3906,3907,3908,3909,3910,3911,3912,3913,3914,3915,3916,3917,3918,3919,3920,3921,3922,3923,3924,3925,3926,3927,3928,3929,3930,3931,3932,3933,3934,3935,3936,3937,3938,3939,3940,3941,3942,3943,3944,3945,3946,3947,3948,3949,3950,3951,3952,3953,3954,3955,3956,3957,3958,3959,3960,3961,3962,3963,3964,3965,3966,3967,3968,3969,3970,3971,3972,3973,3974,3975,3976,3977,3978,3979,3980,3981,3982,3983,3984,3985,3986,3987,3988,3989,3990,3991,3992,3993,3994,3995,3996,3997,3998,3999,4000,4001,4002,4003,4004,4005,4006,4007,4008,4009,4010,4011,4012,4013,4014,4015,4016,4017,4018,4019,4020,4021,4022,4023,4024,4025,4026,4027,4028,4029,4030,4031,4032,4033,4034,4035,4036,4037,4038,4039,4040,4041,4042,4043,4044,4045,4046,4047,4048,4049,4050,4051,4052,4053,4054,4055,4056,4057,4058,4059,4060,4061,4062,4063,4064,4065,4066,4067,4068,4069,4070,4071,4072,4073,4074,4075,4076,4077,4078,4079,4080,4081,4082,4083,4084,4085,4086,4087,4088,4089,4090,4091,4092,4093,4094,4095,4096,4097,4098,4099,4100,4101,4102,4103,4104,4105,4106,4107,4108,4109,4110,4111,4112,4113,4114,4115,4116,4117,4118,4119,4120,4121,4122,4123,4124,4125,4126,4127,4128,4129,4130,4131,4132,4133,4134,4135,4136,4137,4138,4139,4140,4141,4142,4143,4144,4145,4146,4147,4148,4149,4150,4151,4152,4153,4154,4155,4156,4157,4158,4159,4160,4161,4162,4163,4164,4165,4166,4167,4168,4169,4170,4171,4172,4173,4174,4175,4176,4177,4178,4179,4180,4181,4182,4183,4184,4185,4186,4187,4188,4189,4190,4191,4192,4193,4194,4195,4196,4197,4198,4199,4200,4201,4202,4203,4204,4205,4206,4207,4208,4209,4210,4211,4212,4213,4214,4215,4216,4217,4218,4219,4220,4221,4222,4223,4224,4225,4226,4227,4228,4229,4230,4231,4232,4233,4234,4235,4236,4237,4238,4239,4240,4241,4242,4243,4244,4245,4246,4247,4248,4249,4250,4251,4252,4253,4254,4255,4256,4257,4258,4259,4260,4261,4262,4263,4264,4265,4266,4267,4268,4269,4270,4271,4272,4273,4274,4275,4276,4277,4278,4279,4280,4281,4282,4283,4284,4285,4286,4287,4288,4289,4290,4291,4292,4293,4294,4295,4296,4297,4298,4299,4300,4301,4302,4303,4304,4305,4306,4307,4308,4309,4310,4311,4312,4313,4314,4315,4316,4317,4318,4319,4320,4321,4322,4323,4324,4325,4326,4327,4328,4329,4330,4331,4332,4333,4334,4335,4336,4337,4338,4339,4340,4341,4342,4343,4344,4345,4346,4347,4348,4349,4350,4351,4352,4353,4354,4355,4356,4357,4358,4359,4360,4361,4362,4363,4364,4365,4366,4367,4368,4369,4370,4371,4372,4373,4374,4375,4376,4377,4378,4379,4380,4381,4382,4383,4384,4385,4386,4387,4388,4389,4390,4391,4392,4393,4394,4395,4396,4397,4398,4399,4400,4401,4402,4403,4404,4405,4406,4407,4408,4409,4410,4411,4412,4413,4414,4415,4416,4417,4418,4419,4420,4421,4422,4423,4424,4425,4426,4427,4428,4429,4430,4431,4432,4433,4434,4435,4436,4437,4438,4439,4440,4441,4442,4443,4444,4445,4446,4447,4448,4449,4450,4451,4452,4453,4454,4455,4456,4457,4458,4459,4460,4461,4462,4463,4464,4465,4466,4467,4468,4469,4470,4471,4472,4473,4474,4475,4476,4477,4478,4479,4480,4481,4482,4483,4484,4485,4486,4487,4488,4489,4490,4491,4492,4493,4494,4495,4496,4497,4498,4499,4500,4501,4502,4503,4504,4505,4506,4507,4508,4509,4510,4511,4512,4513,4514,4515,4516,4517,4518,4519,4520,4521,4522,4523,4524,4525,4526,4527,4528,4529,4530,4531,4532,4533,4534,4535,4536,4537,4538,4539,4540,4541,4542,4543,4544,4545,4546,4547,4548,4549,4550,4551,4552,4553,4554,4555,4556,4557,4558,4559,4560,4561,4562,4563,4564,4565,4566,4567,4568,4569,4570,4571,4572,4573,4574,4575,4576,4577,4578,4579,4580,4581,4582,4583,4584,4585,4586,4587,4588,4589,4590,4591,4592,4593,4594,4595,4596,4597,4598,4599,4600,4601,4602,4603,4604,4605,4606,4607,4608,4609,4610,4611,4612,4613,4614,4615,4616,4617,4618,4619,4620,4621,4622,4623,4624,4625,4626,4627,4628,4629,4630,4631,4632,4633,4634,4635,4636,4637,4638,4639,4640,4641,4642,4643,4644,4645,4646,4647,4648,4649,4650,4651,4652,4653,4654,4655,4656,4657,4658,4659,4660,4661,4662,4663,4664,4665,4666,4667,4668,4669,4670,4671,4672,4673,4674,4675,4676,4677,4678,4679,4680,4681,4682,4683,4684,4685,4686,4687,4688,4689,4690,4691,4692,4693,4694,4695,4696,4697,4698,4699,4700,4701,4702,4703,4704,4705,4706,4707,4708,4709,4710,4711,4712,4713,4714,4715,4716,4717,4718,4719,4720,4721,4722,4723,4724,4725,4726,4727,4728,4729,4730,4731,4732,4733,4734,4735,4736,4737,4738,4739,4740,4741,4742,4743,4744,4745,4746,4747,4748,4749,4750,4751,4752,4753,4754,4755,4756,4757,4758,4759,4760,4761,4762,4763,4764,4765,4766,4767,4768,4769,4770,4771,4772,4773,4774,4775,4776,4777,4778,4779,4780,4781,4782,4783,4784,4785,4786,4787,4788,4789,4790,4791,4792,4793,4794,4795,4796,4797,4798,4799,4800,4801,4802,4803,4804,4805,4806,4807,4808,4809,4810,4811,4812,4813,4814,4815,4816,4817,4818,4819,4820,4821,4822,4823,4824,4825,4826,4827,4828,4829,4830,4831,4832,4833,4834,4835,4836,4837,4838,4839,4840,4841,4842,4843,4844,4845,4846,4847,4848,4849,4850,4851,4852,4853,4854,4855,4856,4857,4858,4859,4860,4861,4862,4863,4864,4865,4866,4867,4868,4869,4870,4871,4872,4873,4874,4875,4876,4877,4878,4879,4880,4881,4882,4883,4884,4885,4886,4887,4888,4889,4890,4891,4892,4893,4894,4895,4896,4897,4898,4899,4900,4901,4902,4903,4904,4905,4906,4907,4908,4909,4910,4911,4912,4913,4914,4915,4916,4917,4918,4919,4920,4921,4922,4923,4924,4925,4926,4927,4928,4929,4930,4931,4932,4933,4934,4935,4936,4937,4938,4939,4940,4941,4942,4943,4944,4945,4946,4947,4948,4949,4950,4951,4952,4953,4954,4955,4956,4957,4958,4959,4960,4961,4962,4963,4964,4965,4966,4967,4968,4969,4970,4971,4972,4973,4974,4975,4976,4977,4978,4979,4980,4981,4982,4983,4984,4985,4986,4987,4988,4989,4990,4991,4992,4993,4994,4995,4996,4997,4998,4999,5000],"tree_info":[0,0,0,0,0,0,0,0,0,0,0,0,0,0,0,0,0,0,0,0,0,0,0,0,0,0,0,0,0,0,0,0,0,0,0,0,0,0,0,0,0,0,0,0,0,0,0,0,0,0,0,0,0,0,0,0,0,0,0,0,0,0,0,0,0,0,0,0,0,0,0,0,0,0,0,0,0,0,0,0,0,0,0,0,0,0,0,0,0,0,0,0,0,0,0,0,0,0,0,0,0,0,0,0,0,0,0,0,0,0,0,0,0,0,0,0,0,0,0,0,0,0,0,0,0,0,0,0,0,0,0,0,0,0,0,0,0,0,0,0,0,0,0,0,0,0,0,0,0,0,0,0,0,0,0,0,0,0,0,0,0,0,0,0,0,0,0,0,0,0,0,0,0,0,0,0,0,0,0,0,0,0,0,0,0,0,0,0,0,0,0,0,0,0,0,0,0,0,0,0,0,0,0,0,0,0,0,0,0,0,0,0,0,0,0,0,0,0,0,0,0,0,0,0,0,0,0,0,0,0,0,0,0,0,0,0,0,0,0,0,0,0,0,0,0,0,0,0,0,0,0,0,0,0,0,0,0,0,0,0,0,0,0,0,0,0,0,0,0,0,0,0,0,0,0,0,0,0,0,0,0,0,0,0,0,0,0,0,0,0,0,0,0,0,0,0,0,0,0,0,0,0,0,0,0,0,0,0,0,0,0,0,0,0,0,0,0,0,0,0,0,0,0,0,0,0,0,0,0,0,0,0,0,0,0,0,0,0,0,0,0,0,0,0,0,0,0,0,0,0,0,0,0,0,0,0,0,0,0,0,0,0,0,0,0,0,0,0,0,0,0,0,0,0,0,0,0,0,0,0,0,0,0,0,0,0,0,0,0,0,0,0,0,0,0,0,0,0,0,0,0,0,0,0,0,0,0,0,0,0,0,0,0,0,0,0,0,0,0,0,0,0,0,0,0,0,0,0,0,0,0,0,0,0,0,0,0,0,0,0,0,0,0,0,0,0,0,0,0,0,0,0,0,0,0,0,0,0,0,0,0,0,0,0,0,0,0,0,0,0,0,0,0,0,0,0,0,0,0,0,0,0,0,0,0,0,0,0,0,0,0,0,0,0,0,0,0,0,0,0,0,0,0,0,0,0,0,0,0,0,0,0,0,0,0,0,0,0,0,0,0,0,0,0,0,0,0,0,0,0,0,0,0,0,0,0,0,0,0,0,0,0,0,0,0,0,0,0,0,0,0,0,0,0,0,0,0,0,0,0,0,0,0,0,0,0,0,0,0,0,0,0,0,0,0,0,0,0,0,0,0,0,0,0,0,0,0,0,0,0,0,0,0,0,0,0,0,0,0,0,0,0,0,0,0,0,0,0,0,0,0,0,0,0,0,0,0,0,0,0,0,0,0,0,0,0,0,0,0,0,0,0,0,0,0,0,0,0,0,0,0,0,0,0,0,0,0,0,0,0,0,0,0,0,0,0,0,0,0,0,0,0,0,0,0,0,0,0,0,0,0,0,0,0,0,0,0,0,0,0,0,0,0,0,0,0,0,0,0,0,0,0,0,0,0,0,0,0,0,0,0,0,0,0,0,0,0,0,0,0,0,0,0,0,0,0,0,0,0,0,0,0,0,0,0,0,0,0,0,0,0,0,0,0,0,0,0,0,0,0,0,0,0,0,0,0,0,0,0,0,0,0,0,0,0,0,0,0,0,0,0,0,0,0,0,0,0,0,0,0,0,0,0,0,0,0,0,0,0,0,0,0,0,0,0,0,0,0,0,0,0,0,0,0,0,0,0,0,0,0,0,0,0,0,0,0,0,0,0,0,0,0,0,0,0,0,0,0,0,0,0,0,0,0,0,0,0,0,0,0,0,0,0,0,0,0,0,0,0,0,0,0,0,0,0,0,0,0,0,0,0,0,0,0,0,0,0,0,0,0,0,0,0,0,0,0,0,0,0,0,0,0,0,0,0,0,0,0,0,0,0,0,0,0,0,0,0,0,0,0,0,0,0,0,0,0,0,0,0,0,0,0,0,0,0,0,0,0,0,0,0,0,0,0,0,0,0,0,0,0,0,0,0,0,0,0,0,0,0,0,0,0,0,0,0,0,0,0,0,0,0,0,0,0,0,0,0,0,0,0,0,0,0,0,0,0,0,0,0,0,0,0,0,0,0,0,0,0,0,0,0,0,0,0,0,0,0,0,0,0,0,0,0,0,0,0,0,0,0,0,0,0,0,0,0,0,0,0,0,0,0,0,0,0,0,0,0,0,0,0,0,0,0,0,0,0,0,0,0,0,0,0,0,0,0,0,0,0,0,0,0,0,0,0,0,0,0,0,0,0,0,0,0,0,0,0,0,0,0,0,0,0,0,0,0,0,0,0,0,0,0,0,0,0,0,0,0,0,0,0,0,0,0,0,0,0,0,0,0,0,0,0,0,0,0,0,0,0,0,0,0,0,0,0,0,0,0,0,0,0,0,0,0,0,0,0,0,0,0,0,0,0,0,0,0,0,0,0,0,0,0,0,0,0,0,0,0,0,0,0,0,0,0,0,0,0,0,0,0,0,0,0,0,0,0,0,0,0,0,0,0,0,0,0,0,0,0,0,0,0,0,0,0,0,0,0,0,0,0,0,0,0,0,0,0,0,0,0,0,0,0,0,0,0,0,0,0,0,0,0,0,0,0,0,0,0,0,0,0,0,0,0,0,0,0,0,0,0,0,0,0,0,0,0,0,0,0,0,0,0,0,0,0,0,0,0,0,0,0,0,0,0,0,0,0,0,0,0,0,0,0,0,0,0,0,0,0,0,0,0,0,0,0,0,0,0,0,0,0,0,0,0,0,0,0,0,0,0,0,0,0,0,0,0,0,0,0,0,0,0,0,0,0,0,0,0,0,0,0,0,0,0,0,0,0,0,0,0,0,0,0,0,0,0,0,0,0,0,0,0,0,0,0,0,0,0,0,0,0,0,0,0,0,0,0,0,0,0,0,0,0,0,0,0,0,0,0,0,0,0,0,0,0,0,0,0,0,0,0,0,0,0,0,0,0,0,0,0,0,0,0,0,0,0,0,0,0,0,0,0,0,0,0,0,0,0,0,0,0,0,0,0,0,0,0,0,0,0,0,0,0,0,0,0,0,0,0,0,0,0,0,0,0,0,0,0,0,0,0,0,0,0,0,0,0,0,0,0,0,0,0,0,0,0,0,0,0,0,0,0,0,0,0,0,0,0,0,0,0,0,0,0,0,0,0,0,0,0,0,0,0,0,0,0,0,0,0,0,0,0,0,0,0,0,0,0,0,0,0,0,0,0,0,0,0,0,0,0,0,0,0,0,0,0,0,0,0,0,0,0,0,0,0,0,0,0,0,0,0,0,0,0,0,0,0,0,0,0,0,0,0,0,0,0,0,0,0,0,0,0,0,0,0,0,0,0,0,0,0,0,0,0,0,0,0,0,0,0,0,0,0,0,0,0,0,0,0,0,0,0,0,0,0,0,0,0,0,0,0,0,0,0,0,0,0,0,0,0,0,0,0,0,0,0,0,0,0,0,0,0,0,0,0,0,0,0,0,0,0,0,0,0,0,0,0,0,0,0,0,0,0,0,0,0,0,0,0,0,0,0,0,0,0,0,0,0,0,0,0,0,0,0,0,0,0,0,0,0,0,0,0,0,0,0,0,0,0,0,0,0,0,0,0,0,0,0,0,0,0,0,0,0,0,0,0,0,0,0,0,0,0,0,0,0,0,0,0,0,0,0,0,0,0,0,0,0,0,0,0,0,0,0,0,0,0,0,0,0,0,0,0,0,0,0,0,0,0,0,0,0,0,0,0,0,0,0,0,0,0,0,0,0,0,0,0,0,0,0,0,0,0,0,0,0,0,0,0,0,0,0,0,0,0,0,0,0,0,0,0,0,0,0,0,0,0,0,0,0,0,0,0,0,0,0,0,0,0,0,0,0,0,0,0,0,0,0,0,0,0,0,0,0,0,0,0,0,0,0,0,0,0,0,0,0,0,0,0,0,0,0,0,0,0,0,0,0,0,0,0,0,0,0,0,0,0,0,0,0,0,0,0,0,0,0,0,0,0,0,0,0,0,0,0,0,0,0,0,0,0,0,0,0,0,0,0,0,0,0,0,0,0,0,0,0,0,0,0,0,0,0,0,0,0,0,0,0,0,0,0,0,0,0,0,0,0,0,0,0,0,0,0,0,0,0,0,0,0,0,0,0,0,0,0,0,0,0,0,0,0,0,0,0,0,0,0,0,0,0,0,0,0,0,0,0,0,0,0,0,0,0,0,0,0,0,0,0,0,0,0,0,0,0,0,0,0,0,0,0,0,0,0,0,0,0,0,0,0,0,0,0,0,0,0,0,0,0,0,0,0,0,0,0,0,0,0,0,0,0,0,0,0,0,0,0,0,0,0,0,0,0,0,0,0,0,0,0,0,0,0,0,0,0,0,0,0,0,0,0,0,0,0,0,0,0,0,0,0,0,0,0,0,0,0,0,0,0,0,0,0,0,0,0,0,0,0,0,0,0,0,0,0,0,0,0,0,0,0,0,0,0,0,0,0,0,0,0,0,0,0,0,0,0,0,0,0,0,0,0,0,0,0,0,0,0,0,0,0,0,0,0,0,0,0,0,0,0,0,0,0,0,0,0,0,0,0,0,0,0,0,0,0,0,0,0,0,0,0,0,0,0,0,0,0,0,0,0,0,0,0,0,0,0,0,0,0,0,0,0,0,0,0,0,0,0,0,0,0,0,0,0,0,0,0,0,0,0,0,0,0,0,0,0,0,0,0,0,0,0,0,0,0,0,0,0,0,0,0,0,0,0,0,0,0,0,0,0,0,0,0,0,0,0,0,0,0,0,0,0,0,0,0,0,0,0,0,0,0,0,0,0,0,0,0,0,0,0,0,0,0,0,0,0,0,0,0,0,0,0,0,0,0,0,0,0,0,0,0,0,0,0,0,0,0,0,0,0,0,0,0,0,0,0,0,0,0,0,0,0,0,0,0,0,0,0,0,0,0,0,0,0,0,0,0,0,0,0,0,0,0,0,0,0,0,0,0,0,0,0,0,0,0,0,0,0,0,0,0,0,0,0,0,0,0,0,0,0,0,0,0,0,0,0,0,0,0,0,0,0,0,0,0,0,0,0,0,0,0,0,0,0,0,0,0,0,0,0,0,0,0,0,0,0,0,0,0,0,0,0,0,0,0,0,0,0,0,0,0,0,0,0,0,0,0,0,0,0,0,0,0,0,0,0,0,0,0,0,0,0,0,0,0,0,0,0,0,0,0,0,0,0,0,0,0,0,0,0,0,0,0,0,0,0,0,0,0,0,0,0,0,0,0,0,0,0,0,0,0,0,0,0,0,0,0,0,0,0,0,0,0,0,0,0,0,0,0,0,0,0,0,0,0,0,0,0,0,0,0,0,0,0,0,0,0,0,0,0,0,0,0,0,0,0,0,0,0,0,0,0,0,0,0,0,0,0,0,0,0,0,0,0,0,0,0,0,0,0,0,0,0,0,0,0,0,0,0,0,0,0,0,0,0,0,0,0,0,0,0,0,0,0,0,0,0,0,0,0,0,0,0,0,0,0,0,0,0,0,0,0,0,0,0,0,0,0,0,0,0,0,0,0,0,0,0,0,0,0,0,0,0,0,0,0,0,0,0,0,0,0,0,0,0,0,0,0,0,0,0,0,0,0,0,0,0,0,0,0,0,0,0,0,0,0,0,0,0,0,0,0,0,0,0,0,0,0,0,0,0,0,0,0,0,0,0,0,0,0,0,0,0,0,0,0,0,0,0,0,0,0,0,0,0,0,0,0,0,0,0,0,0,0,0,0,0,0,0,0,0,0,0,0,0,0,0,0,0,0,0,0,0,0,0,0,0,0,0,0,0,0,0,0,0,0,0,0,0,0,0,0,0,0,0,0,0,0,0,0,0,0,0,0,0,0,0,0,0,0,0,0,0,0,0,0,0,0,0,0,0,0,0,0,0,0,0,0,0,0,0,0,0,0,0,0,0,0,0,0,0,0,0,0,0,0,0,0,0,0,0,0,0,0,0,0,0,0,0,0,0,0,0,0,0,0,0,0,0,0,0,0,0,0,0,0,0,0,0,0,0,0,0,0,0,0,0,0,0,0,0,0,0,0,0,0,0,0,0,0,0,0,0,0,0,0,0,0,0,0,0,0,0,0,0,0,0,0,0,0,0,0,0,0,0,0,0,0,0,0,0,0,0,0,0,0,0,0,0,0,0,0,0,0,0,0,0,0,0,0,0,0,0,0,0,0,0,0,0,0,0,0,0,0,0,0,0,0,0,0,0,0,0,0,0,0,0,0,0,0,0,0,0,0,0,0,0,0,0,0,0,0,0,0,0,0,0,0,0,0,0,0,0,0,0,0,0,0,0,0,0,0,0,0,0,0,0,0,0,0,0,0,0,0,0,0,0,0,0,0,0,0,0,0,0,0,0,0,0,0,0,0,0,0,0,0,0,0,0,0,0,0,0,0,0,0,0,0,0,0,0,0,0,0,0,0,0,0,0,0,0,0,0,0,0,0,0,0,0,0,0,0,0,0,0,0,0,0,0,0,0,0,0,0,0,0,0,0,0,0,0,0,0,0,0,0,0,0,0,0,0,0,0,0,0,0,0,0,0,0,0,0,0,0,0,0,0,0,0,0,0,0,0,0,0,0,0,0,0,0,0,0,0,0,0,0,0,0,0,0,0,0,0,0,0,0,0,0,0,0,0,0,0,0,0,0,0,0,0,0,0,0,0,0,0,0,0,0,0,0,0,0,0,0,0,0,0,0,0,0,0,0,0,0,0,0,0,0,0,0,0,0,0,0,0,0,0,0,0,0,0,0,0,0,0,0,0,0,0,0,0,0,0,0,0,0,0,0,0,0,0,0,0,0,0,0,0,0,0,0,0,0,0,0,0,0,0,0,0,0,0,0,0,0,0,0,0,0,0,0,0,0,0,0,0,0,0,0,0,0,0,0,0,0,0,0,0,0,0,0,0,0,0,0,0,0,0,0,0,0,0,0,0,0,0,0,0,0,0,0,0,0,0,0,0,0,0,0,0,0,0,0,0,0,0,0,0,0,0,0,0,0,0,0,0,0,0,0,0,0,0,0,0,0,0,0,0,0,0,0,0,0,0,0,0,0,0,0,0,0,0,0,0,0,0,0,0,0,0,0,0,0,0,0,0,0,0,0,0,0,0,0,0,0,0,0,0,0,0,0,0,0,0,0,0,0,0,0,0,0,0,0,0,0,0,0,0,0,0,0,0,0,0,0,0,0,0,0,0,0,0,0,0,0,0,0,0,0,0,0,0,0,0,0,0,0,0,0,0,0,0,0,0,0,0,0,0,0,0,0,0,0,0,0,0,0,0,0,0,0,0,0,0,0,0,0,0,0,0,0,0,0,0,0,0,0,0,0,0,0,0,0,0,0,0,0,0,0,0,0,0,0,0,0,0,0,0,0,0,0,0,0,0,0,0,0,0,0,0,0,0,0,0,0,0,0,0,0,0,0,0,0,0,0,0,0,0,0,0,0,0,0,0,0,0,0,0,0,0,0,0,0,0,0,0,0,0,0,0,0,0,0,0,0,0,0,0,0,0,0,0,0,0,0,0,0,0,0,0,0,0,0,0,0,0,0,0,0,0,0,0,0,0,0,0,0,0,0,0,0,0,0,0,0,0,0,0,0,0,0,0,0,0,0,0,0,0,0,0,0,0,0,0,0,0,0,0,0,0,0,0,0,0,0,0,0,0,0,0,0,0,0,0,0,0,0,0,0,0,0,0,0,0,0,0,0,0,0,0,0,0,0,0,0,0,0,0,0,0,0,0,0,0,0,0,0,0,0,0,0,0,0,0,0,0,0,0,0,0,0,0,0,0,0,0,0,0,0,0,0,0,0,0,0,0,0,0,0,0,0,0,0,0,0,0,0,0,0,0,0,0,0,0,0,0,0,0,0,0,0,0,0,0,0,0,0,0,0,0,0,0,0,0,0,0,0,0,0,0,0,0,0,0,0,0,0,0,0,0,0,0,0,0,0,0,0,0,0,0,0,0,0,0,0,0,0,0,0,0,0,0,0,0,0,0,0,0,0,0,0,0,0,0,0,0,0,0,0,0,0,0,0,0,0,0,0,0,0,0,0,0,0,0,0,0,0,0,0,0,0,0,0,0,0,0,0,0,0,0,0,0,0,0,0,0,0,0,0,0,0,0,0,0,0,0,0,0,0,0,0,0,0,0,0,0,0,0,0,0,0,0,0,0,0,0,0,0,0,0,0,0,0,0,0,0,0,0,0,0,0,0,0,0,0,0,0,0,0,0,0,0,0,0,0,0,0,0,0,0,0,0,0,0,0,0,0,0,0,0,0,0,0,0,0,0,0,0,0,0,0,0,0,0,0,0,0,0,0,0,0,0,0,0,0,0,0,0,0,0,0,0,0,0,0,0,0,0,0,0,0,0,0,0,0,0,0,0,0,0,0,0,0,0,0,0,0,0,0,0,0,0,0,0,0,0,0,0,0,0,0,0,0,0,0,0,0,0,0,0,0,0,0,0,0,0,0,0,0,0,0,0,0,0,0,0,0,0,0,0,0,0,0,0,0,0,0,0,0,0,0,0,0,0,0,0,0,0,0,0,0,0,0,0,0,0,0,0,0,0,0,0,0,0,0,0,0,0,0,0,0,0,0,0,0,0,0,0,0,0,0,0,0,0,0,0,0,0,0,0,0,0,0,0,0,0,0,0,0,0,0,0,0,0,0,0,0,0,0,0,0,0,0,0,0,0,0,0,0,0,0,0,0,0,0,0,0,0,0,0,0,0,0,0,0,0,0,0,0,0,0,0,0,0,0,0,0,0,0,0,0,0,0,0,0,0,0,0,0,0,0,0,0,0,0,0,0,0,0,0,0,0,0,0,0,0,0,0,0,0,0,0,0,0,0,0,0,0,0,0,0,0,0,0,0,0,0,0,0,0,0,0,0,0,0,0,0,0,0,0,0,0,0,0,0,0,0,0,0,0,0,0,0,0,0,0,0,0,0,0,0,0,0,0,0,0,0,0,0,0,0,0,0,0,0,0,0,0,0,0,0,0,0,0,0,0,0,0,0,0,0,0,0,0,0,0,0,0,0,0,0,0,0,0,0,0,0,0,0,0,0,0,0,0,0,0,0,0,0,0,0,0,0,0,0,0,0,0,0,0,0,0,0,0,0,0,0,0,0,0,0,0,0,0,0,0,0,0,0,0,0,0,0,0,0,0,0,0,0,0,0,0,0,0,0,0,0,0,0,0,0,0,0,0,0,0,0,0,0,0,0,0,0,0,0,0,0,0,0,0,0,0,0,0,0,0,0,0,0,0,0,0,0,0,0,0,0,0,0,0,0,0,0,0,0,0,0,0,0,0,0,0,0,0,0,0,0,0,0,0,0,0,0,0,0,0,0,0,0,0,0,0,0,0,0,0,0,0,0,0,0,0,0,0,0,0,0,0,0,0,0,0,0,0,0,0,0,0,0,0,0,0,0,0,0,0,0,0,0,0,0,0,0,0,0,0,0,0,0,0,0,0,0,0,0,0,0,0,0,0,0,0,0,0,0,0,0,0,0,0,0,0,0,0,0,0,0,0,0,0,0,0,0,0,0,0,0,0,0,0,0,0,0,0,0,0,0,0,0,0,0,0,0,0,0,0,0,0,0,0,0,0,0,0,0,0,0,0,0,0,0,0,0,0,0,0,0,0,0,0,0,0,0,0,0,0,0,0,0,0,0,0,0,0,0,0,0,0,0,0,0,0,0,0,0,0,0,0,0,0,0,0,0,0,0,0,0,0,0,0,0,0,0,0,0,0,0,0,0,0,0,0,0,0,0,0,0,0,0,0,0,0,0,0,0,0,0,0,0,0,0,0,0,0,0,0,0,0,0,0,0,0,0,0,0,0,0,0,0,0,0,0,0,0,0,0,0,0,0,0,0,0,0,0,0,0,0,0,0,0,0,0,0,0,0,0,0,0,0,0,0,0,0,0,0,0,0,0,0,0,0,0,0,0,0,0,0,0,0,0,0,0,0,0,0,0,0,0,0,0,0,0,0,0,0,0,0,0,0,0,0,0,0,0,0,0,0,0,0,0,0,0,0,0,0,0,0,0,0,0,0,0,0,0,0,0,0,0,0,0,0,0,0,0,0,0,0,0,0,0,0,0,0,0,0,0,0,0,0,0,0,0,0,0,0,0,0,0,0,0,0,0,0,0,0,0,0,0,0,0,0,0,0,0,0,0,0,0,0,0,0,0,0,0,0,0,0,0,0,0,0,0,0,0,0,0,0,0,0,0,0,0,0,0,0,0,0,0,0,0,0,0,0,0,0,0,0,0,0,0,0,0,0,0,0,0,0,0,0,0,0,0,0,0,0,0,0,0,0,0,0,0,0,0,0,0,0,0,0,0,0,0,0,0,0,0,0,0,0,0,0,0,0,0,0,0,0,0,0,0,0,0,0,0,0,0,0,0,0,0,0,0,0,0,0,0,0,0,0,0,0,0,0,0,0,0,0,0,0,0,0,0,0,0,0,0,0,0,0,0,0,0,0,0,0,0,0,0,0,0,0,0,0,0,0,0,0,0,0,0,0,0,0,0,0,0,0,0,0,0,0,0,0,0,0,0,0,0,0,0,0,0,0,0,0,0,0,0,0,0,0,0,0,0,0,0,0,0,0,0,0,0,0,0,0,0,0,0,0,0,0,0,0,0,0,0,0,0,0,0,0,0,0,0,0,0,0,0,0,0,0,0,0,0,0,0,0,0,0,0,0,0,0,0,0,0,0,0,0,0,0,0,0,0,0,0,0,0,0,0,0,0,0,0,0,0,0,0,0,0,0,0,0,0,0,0,0,0,0,0,0,0,0,0,0,0,0,0,0,0,0,0,0,0,0,0,0,0,0,0,0,0,0,0,0,0,0,0,0,0,0,0,0,0,0,0,0,0,0,0,0,0,0,0,0,0,0,0,0,0,0,0,0,0,0,0,0,0,0,0,0,0,0,0,0,0,0,0,0,0,0,0,0,0,0,0,0,0,0,0,0,0,0,0,0,0,0,0,0,0,0,0,0,0,0,0,0,0,0,0,0,0,0,0,0,0,0,0,0,0,0,0,0,0,0,0,0,0,0,0,0,0,0,0,0,0,0,0,0,0,0,0,0,0,0,0,0,0,0,0,0,0,0,0,0],"trees":[{"base_weights":[-4.677134E-3,-7.910591E-2,5.0312716E-1,-3.183638E-1,-1.1444645E-2,4.34153E-1,1.4205267E-2,-4.962773E-3,-2.4377576E-3,2.2623127E-3,-6.627337E-4,5.260133E-3,3.8322332E-4],"categories":[],"categories_nodes":[],"categories_segments":[],"categories_sizes":[],"default_left":[0,0,0,0,0,0,0,0,0,0,0,0,0],"id":0,"left_children":[1,3,5,7,9,11,-1,-1,-1,-1,-1,-1,-1],"loss_changes":[3.991379E1,1.4905958E1,7.9256554E0,2.5728703E0,9.384618E0,4.5977077E0,0E0,0E0,0E0,0E0,0E0,0E0,0E0],"parents":[2147483647,0,0,1,1,2,2,3,3,4,4,5,5],"right_children":[2,4,6,8,10,12,-1,-1,-1,-1,-1,-1,-1],"split_conditions":[2.231E3,1.083E3,3.766E3,8.28E2,-8.9402054E1,-8.931785E1,1.4205267E-2,-4.962773E-3,-2.4377576E-3,2.2623127E-3,-6.627337E-4,5.260133E-3,3.8322332E-4],"split_indices":[2,2,2,2,10,10,0,0,0,0,0,0,0],"split_type":[0,0,0,0,0,0,0,0,0,0,0,0,0],"sum_hessian":[1.054E3,9.2E2,1.34E2,2.02E2,7.18E2,1.26E2,8E0,5.8E1,1.44E2,1.34E2,5.84E2,1.02E2,2.4E1],"tree_param":{"num_deleted":"0","num_feature":"83","num_nodes":"13","size_leaf_vector":"1"}},{"base_weights":[-7.484453E-3,3.1814012E-1,-1.0320122E-1,1.5955865E-1,5.651831E-1,-2.2818135E-1,-1.3384468E-2,1.3042714E-3,7.3604146E-3,5.0492776E-3,1.3748159E-2,-2.8319182E-3,9.664792E-4,-2.617269E-4,6.644576E-3],"categories":[],"categories_nodes":[],"categories_segments":[],"categories_sizes":[],"default_left":[0,0,0,0,0,0,0,0,0,0,0,0,0,0,0],"id":1,"left_children":[1,3,5,7,9,11,13,-1,-1,-1,-1,-1,-1,-1,-1],"loss_changes":[3.3475807E1,9.468868E0,9.313952E0,2.4230728E0,3.9403687E0,6.2279167E0,4.212895E0,0E0,0E0,0E0,0E0,0E0,0E0,0E0,0E0],"parents":[2147483647,0,0,1,1,2,2,3,3,4,4,5,5,6,6],"right_children":[2,4,6,8,10,12,14,-1,-1,-1,-1,-1,-1,-1,-1],"split_conditions":[-8.9402054E1,1.1E1,8E0,1E0,1.8E1,1E0,1.4E1,1.3042714E-3,7.3604146E-3,5.0492776E-3,1.3748159E-2,-2.8319182E-3,9.664792E-4,-2.617269E-4,6.644576E-3],"split_indices":[10,6,6,49,6,49,6,0,0,0,0,0,0,0,0],"split_type":[0,0,0,0,0,0,0,0,0,0,0,0,0,0,0],"sum_hessian":[1.072E3,2.43E2,8.29E2,1.49E2,9.4E1,3.46E2,4.83E2,1.43E2,6E0,8.9E1,5E0,2.96E2,5E1,4.75E2,8E0],"tree_param":{"num_deleted":"0","num_feature":"83","num_nodes":"15","size_leaf_vector":"1"}},{"base_weights":[9.6320483E-4,-7.693923E-2,5.075947E-1,-3.304027E-1,-1.692139E-2,6.771204E-1,1.4692263E-1,-4.714426E-3,-2.5830471E-3,2.3022364E-3,-7.573766E-4,5.8307988E-3,1.2946508E-2,3.423558E-3,-2.4094763E-4],"categories":[],"categories_nodes":[],"categories_segments":[],"categories_sizes":[],"default_left":[0,0,0,0,0,0,0,0,0,0,0,0,0,0,0],"id":2,"left_children":[1,3,5,7,9,11,13,-1,-1,-1,-1,-1,-1,-1,-1],"loss_changes":[4.2348564E1,1.4141876E1,8.64399E0,1.6882515E0,1.096316E1,4.8781853E0,1.5791054E0,0E0,0E0,0E0,0E0,0E0,0E0,0E0,0E0],"parents":[2147483647,0,0,1,1,2,2,3,3,4,4,5,5,6,6],"right_children":[2,4,6,8,10,12,14,-1,-1,-1,-1,-1,-1,-1,-1],"split_conditions":[2.231E3,1.045E3,-8.937156E1,8.28E2,-8.9402054E1,3.766E3,4.309086E1,-4.714426E-3,-2.5830471E-3,2.3022364E-3,-7.573766E-4,5.8307988E-3,1.2946508E-2,3.423558E-3,-2.4094763E-4],"split_indices":[2,2,10,2,10,2,9,0,0,0,0,0,0,0,0],"split_type":[0,0,0,0,0,0,0,0,0,0,0,0,0,0,0],"sum_hessian":[1.071E3,9.29E2,1.42E2,1.77E2,7.52E2,9.6E1,4.6E1,5.8E1,1.19E2,1.44E2,6.08E2,8.5E1,1.1E1,2.1E1,2.5E1],"tree_param":{"num_deleted":"0","num_feature":"83","num_nodes":"15","size_leaf_vector":"1"}},{"base_weights":[-1.6733631E-3,-8.6872056E-2,3.128282E-1,5.5014207E-3,-2.3883063E-1,4.290134E-1,3.551193E-2,-1.135888E-3,9.065817E-4,-3.3320645E-3,-1.4057847E-3,3.5072067E-3,7.7598616E-3,-1.1749461E-4,5.3371475E-3],"categories":[],"categories_nodes":[],"categories_segments":[],"categories_sizes":[],"default_left":[0,0,0,0,0,0,0,0,0,0,0,0,0,0,0],"id":3,"left_children":[1,3,5,7,9,11,13,-1,-1,-1,-1,-1,-1,-1,-1],"loss_changes":[2.891232E1,1.1918676E1,7.3953743E0,5.375065E0,2.9296703E0,4.1286488E0,1.6309282E0,0E0,0E0,0E0,0E0,0E0,0E0,0E0,0E0],"parents":[2147483647,0,0,1,1,2,2,3,3,4,4,5,5,6,6],"right_children":[2,4,6,8,10,12,14,-1,-1,-1,-1,-1,-1,-1,-1],"split_conditions":[2.5E0,4.3097546E1,4.308979E1,1.5E0,1.5E0,3.5E0,3E0,-1.135888E-3,9.065817E-4,-3.3320645E-3,-1.4057847E-3,3.5072067E-3,7.7598616E-3,-1.1749461E-4,5.3371475E-3],"split_indices":[1,9,9,1,1,1,11,0,0,0,0,0,0,0,0],"split_type":[0,0,0,0,0,0,0,0,0,0,0,0,0,0,0],"sum_hessian":[1.077E3,8.48E2,2.29E2,5.28E2,3.2E2,1.61E2,6.8E1,2.2E2,3.08E2,1.62E2,1.58E2,1.33E2,2.8E1,6.3E1,5E0],"tree_param":{"num_deleted":"0","num_feature":"83","num_nodes":"15","size_leaf_vector":"1"}},{"base_weights":[1.1290938E-3,-1.4591157E-1,1.8453896E-1,8.924631E-2,-1.782535E-1,1.7014275E-1,9.078391E-3,-3.7149428E-5,1.520275E-3,4.0196773E-4,-1.9365042E-3,3.7757566E-3,1.1227735E-3],"categories":[],"categories_nodes":[],"categories_segments":[],"categories_sizes":[],"default_left":[0,0,0,0,0,0,0,0,0,0,0,0,0],"id":4,"left_children":[1,3,5,7,9,11,-1,-1,-1,-1,-1,-1,-1],"loss_changes":[2.8667698E1,4.503127E0,4.7707863E0,4.207725E-1,1.7534237E0,5.539089E0,0E0,0E0,0E0,0E0,0E0,0E0,0E0],"parents":[2147483647,0,0,1,1,2,2,3,3,4,4,5,5],"right_children":[2,4,6,8,10,12,-1,-1,-1,-1,-1,-1,-1],"split_conditions":[1E0,1.92E3,2.008E3,1E0,1E0,1.942E3,9.078391E-3,-3.7149428E-5,1.520275E-3,4.0196773E-4,-1.9365042E-3,3.7757566E-3,1.1227735E-3],"split_indices":[26,4,4,12,43,4,0,0,0,0,0,0,0],"split_type":[0,0,0,0,0,0,0,0,0,0,0,0,0],"sum_hessian":[1.061E3,5.89E2,4.72E2,7.1E1,5.18E2,4.64E2,8E0,2.9E1,4.2E1,3.4E1,4.84E2,1E2,3.64E2],"tree_param":{"num_deleted":"0","num_feature":"83","num_nodes":"13","size_leaf_vector":"1"}},{"base_weights":[-2.8661853E-3,-9.2279986E-2,3.2774216E-1,-2.1838805E-1,9.234779E-3,2.2642209E-1,7.84338E-1,-2.5388037E-3,-7.494624E-4,1.8126332E-3,-6.325371E-4,3.075459E-3,9.1451127E-4,5.1901424E-3,1.0945287E-2],"categories":[],"categories_nodes":[],"categories_segments":[],"categories_sizes":[],"default_left":[0,0,0,0,0,0,0,0,0,0,0,0,0,0,0],"id":5,"left_children":[1,3,5,7,9,11,13,-1,-1,-1,-1,-1,-1,-1,-1],"loss_changes":[3.166046E1,1.079396E1,1.0370218E1,1.8952198E0,5.8474674E0,2.0303545E0,2.806263E0,0E0,0E0,0E0,0E0,0E0,0E0,0E0,0E0],"parents":[2147483647,0,0,1,1,2,2,3,3,4,4,5,5,6,6],"right_children":[2,4,6,8,10,12,14,-1,-1,-1,-1,-1,-1,-1,-1],"split_conditions":[2.5E0,1.5E0,3.5E0,8E0,1.949E3,1.977E3,1.3094E4,-2.5388037E-3,-7.494624E-4,1.8126332E-3,-6.325371E-4,3.075459E-3,9.1451127E-4,5.1901424E-3,1.0945287E-2],"split_indices":[1,1,1,6,4,4,3,0,0,0,0,0,0,0,0],"split_type":[0,0,0,0,0,0,0,0,0,0,0,0,0,0,0],"sum_hessian":[1.069E3,8.42E2,2.27E2,3.75E2,4.67E2,1.87E2,4E1,3E2,7.5E1,1.38E2,3.29E2,1.16E2,7.1E1,2.3E1,1.7E1],"tree_param":{"num_deleted":"0","num_feature":"83","num_nodes":"15","size_leaf_vector":"1"}},{"base_weights":[1.3290636E-2,-6.659004E-2,3.8831028E-1,7.076517E-2,-1.4872774E-1,2.5163263E-1,8.3063394E-1,3.5403876E-3,3.1889515E-4,-2.33455E-3,-4.9171376E-4,4.2843013E-3,2.0045089E-3,6.765685E-3,1.2713928E-2],"categories":[],"categories_nodes":[],"categories_segments":[],"categories_sizes":[],"default_left":[0,0,0,0,0,0,0,0,0,0,0,0,0,0,0],"id":6,"left_children":[1,3,5,7,9,11,13,-1,-1,-1,-1,-1,-1,-1,-1],"loss_changes":[3.1390654E1,9.758208E0,1.0914846E1,3.5567427E0,4.5519314E0,1.1990509E0,2.0597591E0,0E0,0E0,0E0,0E0,0E0,0E0,0E0,0E0],"parents":[2147483647,0,0,1,1,2,2,3,3,4,4,5,5,6,6],"right_children":[2,4,6,8,10,12,14,-1,-1,-1,-1,-1,-1,-1,-1],"split_conditions":[1.1E1,1E0,1.4E1,1E0,8E0,1.942E3,1.7E1,3.5403876E-3,3.1889515E-4,-2.33455E-3,-4.9171376E-4,4.2843013E-3,2.0045089E-3,6.765685E-3,1.2713928E-2],"split_indices":[6,27,6,43,6,4,6,0,0,0,0,0,0,0,0],"split_type":[0,0,0,0,0,0,0,0,0,0,0,0,0,0,0],"sum_hessian":[1.046E3,8.63E2,1.83E2,3.23E2,5.4E2,1.41E2,4.2E1,3.8E1,2.85E2,2.91E2,2.49E2,3E1,1.11E2,3.3E1,9E0],"tree_param":{"num_deleted":"0","num_feature":"83","num_nodes":"15","size_leaf_vector":"1"}},{"base_weights":[-1.1454658E-3,-7.4248224E-2,4.591577E-1,-2.9333642E-1,-1.2381496E-2,3.6840966E-1,1.0079125E0,-4.353873E-3,-2.3124919E-3,-8.388559E-4,7.720686E-4,5.383928E-3,2.155065E-3,1.13878595E-2,6.0217814E-3],"categories":[],"categories_nodes":[],"categories_segments":[],"categories_sizes":[],"default_left":[0,0,0,0,0,0,0,0,0,0,0,0,0,0,0],"id":7,"left_children":[1,3,5,7,9,11,13,-1,-1,-1,-1,-1,-1,-1,-1],"loss_changes":[3.560154E1,1.2371417E1,6.8494453E0,1.6720448E0,4.5739083E0,3.1588345E0,3.762455E-1,0E0,0E0,0E0,0E0,0E0,0E0,0E0,0E0],"parents":[2147483647,0,0,1,1,2,2,3,3,4,4,5,5,6,6],"right_children":[2,4,6,8,10,12,14,-1,-1,-1,-1,-1,-1,-1,-1],"split_conditions":[2.231E3,1.083E3,3.274E3,8.28E2,1E0,1E0,1E0,-4.353873E-3,-2.3124919E-3,-8.388559E-4,7.720686E-4,5.383928E-3,2.155065E-3,1.13878595E-2,6.0217814E-3],"split_indices":[2,2,2,2,26,16,24,0,0,0,0,0,0,0,0],"split_type":[0,0,0,0,0,0,0,0,0,0,0,0,0,0,0],"sum_hessian":[1.056E3,9.12E2,1.44E2,2E2,7.12E2,1.25E2,1.9E1,5.9E1,1.41E2,3.96E2,3.16E2,5.8E1,6.7E1,1.3E1,6E0],"tree_param":{"num_deleted":"0","num_feature":"83","num_nodes":"15","size_leaf_vector":"1"}},{"base_weights":[1.9582782E-3,-8.2148686E-2,3.7891996E-1,2.0032744E-3,-2.2430693E-1,2.4778885E-1,7.865713E-1,1.1515423E-3,-7.9076854E-4,-3.2248872E-3,-1.1587605E-3,3.2908868E-3,3.9722087E-4,6.380695E-3,1.1258783E-2],"categories":[],"categories_nodes":[],"categories_segments":[],"categories_sizes":[],"default_left":[0,0,0,0,0,0,0,0,0,0,0,0,0,0,0],"id":8,"left_children":[1,3,5,7,9,11,13,-1,-1,-1,-1,-1,-1,-1,-1],"loss_changes":[3.3892174E1,1.0456018E1,1.0228973E1,5.0549684E0,3.4225616E0,2.5073805E0,1.6498337E0,0E0,0E0,0E0,0E0,0E0,0E0,0E0,0E0],"parents":[2147483647,0,0,1,1,2,2,3,3,4,4,5,5,6,6],"right_children":[2,4,6,8,10,12,14,-1,-1,-1,-1,-1,-1,-1,-1],"split_conditions":[1.1E1,4.3097546E1,1.4E1,1E0,8E0,4.3096054E1,1.7E1,1.1515423E-3,-7.9076854E-4,-3.2248872E-3,-1.1587605E-3,3.2908868E-3,3.9722087E-4,6.380695E-3,1.1258783E-2],"split_indices":[6,9,6,27,6,9,6,0,0,0,0,0,0,0,0],"split_type":[0,0,0,0,0,0,0,0,0,0,0,0,0,0,0],"sum_hessian":[1.067E3,8.73E2,1.94E2,5.49E2,3.24E2,1.48E2,4.6E1,2.29E2,3.2E2,1.69E2,1.55E2,1.06E2,4.2E1,3.4E1,1.2E1],"tree_param":{"num_deleted":"0","num_feature":"83","num_nodes":"15","size_leaf_vector":"1"}},{"base_weights":[3.2980924E-3,3.262429E-1,-9.6540034E-2,1.9400854E-1,6.327636E-1,-2.2198476E-1,-2.6565515E-3,7.2700984E-4,3.1173294E-3,5.5570216E-3,1.1990578E-2,-2.7507064E-3,6.623383E-4,-1.7565876E-4,6.048011E-3],"categories":[],"categories_nodes":[],"categories_segments":[],"categories_sizes":[],"default_left":[0,0,0,0,0,0,0,0,0,0,0,0,0,0,0],"id":9,"left_children":[1,3,5,7,9,11,13,-1,-1,-1,-1,-1,-1,-1,-1],"loss_changes":[3.3724594E1,9.888784E0,9.409384E0,2.4622054E0,2.5629978E0,5.2509346E0,4.158631E0,0E0,0E0,0E0,0E0,0E0,0E0,0E0,0E0],"parents":[2147483647,0,0,1,1,2,2,3,3,4,4,5,5,6,6],"right_children":[2,4,6,8,10,12,14,-1,-1,-1,-1,-1,-1,-1,-1],"split_conditions":[-8.9402054E1,1.2E1,8E0,-8.94501E1,1E0,1E0,1.4E1,7.2700984E-4,3.1173294E-3,5.5570216E-3,1.1990578E-2,-2.7507064E-3,6.623383E-4,-1.7565876E-4,6.048011E-3],"split_indices":[10,6,6,10,23,49,6,0,0,0,0,0,0,0,0],"split_type":[0,0,0,0,0,0,0,0,0,0,0,0,0,0,0],"sum_hessian":[1.044E3,2.46E2,7.98E2,1.73E2,7.3E1,3.41E2,4.57E2,8.6E1,8.7E1,6.6E1,7E0,2.88E2,5.3E1,4.47E2,1E1],"tree_param":{"num_deleted":"0","num_feature":"83","num_nodes":"15","size_leaf_vector":"1"}},{"base_weights":[-2.1286622E-4,-6.0804434E-2,4.9874738E-1,-2.9939908E-1,-4.0354654E-3,6.457472E-1,1.8388608E-1,-4.4484693E-3,-2.1865906E-3,2.0697871E-3,-6.457135E-4,5.2556554E-3,9.679955E-3,4.471815E-3,7.3881214E-4],"categories":[],"categories_nodes":[],"categories_segments":[],"categories_sizes":[],"default_left":[0,0,0,0,0,0,0,0,0,0,0,0,0,0,0],"id":10,"left_children":[1,3,5,7,9,11,13,-1,-1,-1,-1,-1,-1,-1,-1],"loss_changes":[3.2107307E1,1.282569E1,5.2039795E0,2.040041E0,9.798196E0,2.512066E0,1.0675851E0,0E0,0E0,0E0,0E0,0E0,0E0,0E0,0E0],"parents":[2147483647,0,0,1,1,2,2,3,3,4,4,5,5,6,6],"right_children":[2,4,6,8,10,12,14,-1,-1,-1,-1,-1,-1,-1,-1],"split_conditions":[2.323E3,1.045E3,-8.937438E1,8.28E2,-8.939334E1,3.274E3,1E0,-4.4484693E-3,-2.1865906E-3,2.0697871E-3,-6.457135E-4,5.2556554E-3,9.679955E-3,4.471815E-3,7.3881214E-4],"split_indices":[2,2,10,2,10,2,16,0,0,0,0,0,0,0,0],"split_type":[0,0,0,0,0,0,0,0,0,0,0,0,0,0,0],"sum_hessian":[1.06E3,9.46E2,1.14E2,1.81E2,7.65E2,7.7E1,3.7E1,6.3E1,1.18E2,1.7E2,5.95E2,5.8E1,1.9E1,1E1,2.7E1],"tree_param":{"num_deleted":"0","num_feature":"83","num_nodes":"15","size_leaf_vector":"1"}},{"base_weights":[3.0216712E-3,-1.3948359E-1,1.8278661E-1,-1.7078258E-1,4.8114855E-2,2.982264E-1,8.3193704E-2,-1.8292349E-3,1.9706355E-3,-1.3573411E-4,2.696083E-3,6.236919E-3,2.497147E-3,5.417431E-4,4.2581577E-3],"categories":[],"categories_nodes":[],"categories_segments":[],"categories_sizes":[],"default_left":[0,0,0,0,0,0,0,0,0,0,0,0,0,0,0],"id":11,"left_children":[1,3,5,7,9,11,13,-1,-1,-1,-1,-1,-1,-1,-1],"loss_changes":[2.769234E1,3.5488176E0,5.470746E0,2.344965E0,1.192388E0,3.3335934E0,2.5421445E0,0E0,0E0,0E0,0E0,0E0,0E0,0E0,0E0],"parents":[2147483647,0,0,1,1,2,2,3,3,4,4,5,5,6,6],"right_children":[2,4,6,8,10,12,14,-1,-1,-1,-1,-1,-1,-1,-1],"split_conditions":[1E0,1E0,1E0,1E0,1E0,1E0,1E0,-1.8292349E-3,1.9706355E-3,-1.3573411E-4,2.696083E-3,6.236919E-3,2.497147E-3,5.417431E-4,4.2581577E-3],"split_indices":[26,62,16,53,24,43,53,0,0,0,0,0,0,0,0],"split_type":[0,0,0,0,0,0,0,0,0,0,0,0,0,0,0],"sum_hessian":[1.079E3,6.02E2,4.77E2,5.16E2,8.6E1,2.2E2,2.57E2,5E2,1.6E1,6.8E1,1.8E1,2.7E1,1.93E2,2.38E2,1.9E1],"tree_param":{"num_deleted":"0","num_feature":"83","num_nodes":"15","size_leaf_vector":"1"}},{"base_weights":[-2.3313724E-3,3.1181878E-1,-9.612161E-2,2.9534918E-1,9.296121E-3,-1.095861E-1,3.2652813E-1,2.1229568E-3,4.2791674E-3,-5.394909E-4,-1.7479958E-3,5.818825E-3,1.3056397E-3],"categories":[],"categories_nodes":[],"categories_segments":[],"categories_sizes":[],"default_left":[0,0,0,0,0,0,0,0,0,0,0,0,0],"id":12,"left_children":[1,3,5,7,-1,9,11,-1,-1,-1,-1,-1,-1],"loss_changes":[3.1910255E1,2.2589626E0,4.78188E0,2.595646E0,0E0,2.9258518E0,1.2250755E0,0E0,0E0,0E0,0E0,0E0,0E0],"parents":[2147483647,0,0,1,1,2,2,3,3,5,5,6,6],"right_children":[2,4,6,8,-1,10,12,-1,-1,-1,-1,-1,-1],"split_conditions":[-8.9402054E1,2.008E3,1E0,-8.944695E1,9.296121E-3,4.309816E1,-8.936699E1,2.1229568E-3,4.2791674E-3,-5.394909E-4,-1.7479958E-3,5.818825E-3,1.3056397E-3],"split_indices":[10,4,53,10,0,9,10,0,0,0,0,0,0],"split_type":[0,0,0,0,0,0,0,0,0,0,0,0,0],"sum_hessian":[1.081E3,2.48E2,8.33E2,2.43E2,5E0,8.08E2,2.5E1,1.51E2,9.2E1,4.37E2,3.71E2,1E1,1.5E1],"tree_param":{"num_deleted":"0","num_feature":"83","num_nodes":"13","size_leaf_vector":"1"}},{"base_weights":[-1.0047226E-2,2.9461062E-1,-9.760152E-2,1.5784301E-1,5.9928066E-1,-2.5104806E-1,-2.3021577E-2,-1.3667546E-3,2.1561924E-3,5.3851656E-3,1.198187E-2,-5.296418E-3,-2.0512599E-3,1.7461334E-3,-7.5259013E-4],"categories":[],"categories_nodes":[],"categories_segments":[],"categories_sizes":[],"default_left":[0,0,0,0,0,0,0,0,0,0,0,0,0,0,0],"id":13,"left_children":[1,3,5,7,9,11,13,-1,-1,-1,-1,-1,-1,-1,-1],"loss_changes":[2.867674E1,9.905966E0,9.54999E0,2.87117E0,2.047762E0,3.3840084E0,5.8255205E0,0E0,0E0,0E0,0E0,0E0,0E0,0E0,0E0],"parents":[2147483647,0,0,1,1,2,2,3,3,4,4,5,5,6,6],"right_children":[2,4,6,8,10,12,14,-1,-1,-1,-1,-1,-1,-1,-1],"split_conditions":[-8.9402054E1,2.231E3,1.22E3,1.109E3,3.766E3,7.85E2,1.942E3,-1.3667546E-3,2.1561924E-3,5.3851656E-3,1.198187E-2,-5.296418E-3,-2.0512599E-3,1.7461334E-3,-7.5259013E-4],"split_indices":[10,2,2,2,2,2,4,0,0,0,0,0,0,0,0],"split_type":[0,0,0,0,0,0,0,0,0,0,0,0,0,0,0],"sum_hessian":[1.073E3,2.39E2,8.34E2,1.66E2,7.3E1,2.72E2,5.62E2,2.7E1,1.39E2,6.8E1,5E0,3.7E1,2.35E2,1.17E2,4.45E2],"tree_param":{"num_deleted":"0","num_feature":"83","num_nodes":"15","size_leaf_vector":"1"}},{"base_weights":[3.274684E-3,-9.872503E-2,2.4864104E-1,-2.0288942E-2,-2.3683521E-1,1.6857602E-1,7.433966E-1,-5.1257835E-4,2.019929E-3,-3.1607267E-3,-1.1548845E-3,2.640535E-3,-4.0778203E-4,5.752346E-3,1.1438924E-2],"categories":[],"categories_nodes":[],"categories_segments":[],"categories_sizes":[],"default_left":[0,0,0,0,0,0,0,0,0,0,0,0,0,0,0],"id":14,"left_children":[1,3,5,7,9,11,13,-1,-1,-1,-1,-1,-1,-1,-1],"loss_changes":[2.7104084E1,8.282304E0,1.2471495E1,3.3765428E0,2.6269093E0,5.507635E0,2.305313E0,0E0,0E0,0E0,0E0,0E0,0E0,0E0,0E0],"parents":[2147483647,0,0,1,1,2,2,3,3,4,4,5,5,6,6],"right_children":[2,4,6,8,10,12,14,-1,-1,-1,-1,-1,-1,-1,-1],"split_conditions":[1E1,4.3097546E1,1.4E1,1E0,8E0,4.30956E1,1.7E1,-5.1257835E-4,2.019929E-3,-3.1607267E-3,-1.1548845E-3,2.640535E-3,-4.0778203E-4,5.752346E-3,1.1438924E-2],"split_indices":[6,9,6,33,6,9,6,0,0,0,0,0,0,0,0],"split_type":[0,0,0,0,0,0,0,0,0,0,0,0,0,0,0],"sum_hessian":[1.081E3,7.64E2,3.17E2,4.88E2,2.76E2,2.74E2,4.3E1,4.29E2,5.9E1,1.66E2,1.1E2,1.88E2,8.6E1,3.2E1,1.1E1],"tree_param":{"num_deleted":"0","num_feature":"83","num_nodes":"15","size_leaf_vector":"1"}},{"base_weights":[2.4019042E-3,-1.0306752E-1,2.8256932E-1,-2.790312E-1,-4.0784374E-2,4.0859914E-1,-3.0642394E-3,-4.410777E-3,-2.1473605E-3,1.8265852E-3,-8.400674E-4,3.633361E-3,1.1697288E-2,-9.985362E-4,3.309694E-4],"categories":[],"categories_nodes":[],"categories_segments":[],"categories_sizes":[],"default_left":[0,0,0,0,0,0,0,0,0,0,0,0,0,0,0],"id":15,"left_children":[1,3,5,7,9,11,13,-1,-1,-1,-1,-1,-1,-1,-1],"loss_changes":[3.176485E1,8.548046E0,1.0584766E1,2.0307188E0,5.597513E0,6.6030045E0,3.2180652E-1,0E0,0E0,0E0,0E0,0E0,0E0,0E0,0E0],"parents":[2147483647,0,0,1,1,2,2,3,3,4,4,5,5,6,6],"right_children":[2,4,6,8,10,12,14,-1,-1,-1,-1,-1,-1,-1,-1],"split_conditions":[1.844E3,1.088E3,-8.931785E1,8.28E2,-8.9402054E1,3.766E3,1.967E3,-4.410777E-3,-2.1473605E-3,1.8265852E-3,-8.400674E-4,3.633361E-3,1.1697288E-2,-9.985362E-4,3.309694E-4],"split_indices":[2,2,10,2,10,2,4,0,0,0,0,0,0,0,0],"split_type":[0,0,0,0,0,0,0,0,0,0,0,0,0,0,0],"sum_hessian":[1.073E3,7.8E2,2.93E2,2.03E2,5.77E2,2.03E2,9E1,5.6E1,1.47E2,9.3E1,4.84E2,1.93E2,1E1,2.4E1,6.6E1],"tree_param":{"num_deleted":"0","num_feature":"83","num_nodes":"15","size_leaf_vector":"1"}},{"base_weights":[-2.7829981E-3,-1.3447472E-1,1.6551103E-1,-6.199293E-2,-2.6169503E-1,7.551956E-2,3.6778277E-1,-1.0081189E-3,7.969488E-4,-3.5341626E-3,-1.5599233E-3,1.3586745E-3,-6.0707756E-4,4.5666066E-3,3.6884696E-4],"categories":[],"categories_nodes":[],"categories_segments":[],"categories_sizes":[],"default_left":[0,0,0,0,0,0,0,0,0,0,0,0,0,0,0],"id":16,"left_children":[1,3,5,7,9,11,13,-1,-1,-1,-1,-1,-1,-1,-1],"loss_changes":[2.3980385E1,5.5810184E0,8.618524E0,2.1421015E0,2.0778093E0,2.721189E0,4.276943E0,0E0,0E0,0E0,0E0,0E0,0E0,0E0,0E0],"parents":[2147483647,0,0,1,1,2,2,3,3,4,4,5,5,6,6],"right_children":[2,4,6,8,10,12,14,-1,-1,-1,-1,-1,-1,-1,-1],"split_conditions":[1E0,4.310127E1,4E0,1E0,2E0,4.309833E1,4.309086E1,-1.0081189E-3,7.969488E-4,-3.5341626E-3,-1.5599233E-3,1.3586745E-3,-6.0707756E-4,4.5666066E-3,3.6884696E-4],"split_indices":[26,9,0,62,11,9,9,0,0,0,0,0,0,0,0],"split_type":[0,0,0,0,0,0,0,0,0,0,0,0,0,0,0],"sum_hessian":[1.08E3,6.06E2,4.74E2,3.87E2,2.19E2,3.29E2,1.45E2,3.04E2,8.3E1,1.16E2,1.03E2,2.28E2,1.01E2,1.14E2,3.1E1],"tree_param":{"num_deleted":"0","num_feature":"83","num_nodes":"15","size_leaf_vector":"1"}},{"base_weights":[4.0076207E-4,2.9895756E-1,-8.888105E-2,2.0022485E-1,4.7844017E-1,-2.8271083E-2,-1.7944023E-1,1.102469E-3,2.9450208E-3,4.2450074E-3,1.1448623E-2,1.1449682E-3,-1.2966639E-3,-2.6442425E-3,-9.1327407E-4],"categories":[],"categories_nodes":[],"categories_segments":[],"categories_sizes":[],"default_left":[0,0,0,0,0,0,0,0,0,0,0,0,0,0,0],"id":17,"left_children":[1,3,5,7,9,11,13,-1,-1,-1,-1,-1,-1,-1,-1],"loss_changes":[2.8947998E1,4.334406E0,4.583555E0,1.3502398E0,2.67729E0,7.281797E0,2.4843922E0,0E0,0E0,0E0,0E0,0E0,0E0,0E0,0E0],"parents":[2147483647,0,0,1,1,2,2,3,3,4,4,5,5,6,6],"right_children":[2,4,6,8,10,12,14,-1,-1,-1,-1,-1,-1,-1,-1],"split_conditions":[-8.9402054E1,4E0,4.310127E1,-8.94501E1,3E0,-8.933419E1,1E0,1.102469E-3,2.9450208E-3,4.2450074E-3,1.1448623E-2,1.1449682E-3,-1.2966639E-3,-2.6442425E-3,-9.1327407E-4],"split_indices":[10,0,9,10,11,10,36,0,0,0,0,0,0,0,0],"split_type":[0,0,0,0,0,0,0,0,0,0,0,0,0,0,0],"sum_hessian":[1.084E3,2.49E2,8.35E2,1.62E2,8.7E1,5.01E2,3.34E2,8.4E1,7.8E1,8.2E1,5E0,2.08E2,2.93E2,1.69E2,1.65E2],"tree_param":{"num_deleted":"0","num_feature":"83","num_nodes":"15","size_leaf_vector":"1"}},{"base_weights":[1.1015215E-3,-7.2903864E-2,3.42689E-1,-1.862057E-1,1.5316396E-2,2.4120983E-1,7.0559597E-1,1.0754667E-3,-2.3668641E-3,-6.3278107E-4,1.080389E-3,7.0194073E-4,2.8884509E-3,4.90015E-3,9.538374E-3],"categories":[],"categories_nodes":[],"categories_segments":[],"categories_sizes":[],"default_left":[0,0,0,0,0,0,0,0,0,0,0,0,0,0,0],"id":18,"left_children":[1,3,5,7,9,11,13,-1,-1,-1,-1,-1,-1,-1,-1],"loss_changes":[2.6972733E1,8.768921E0,6.8270264E0,5.7197275E0,3.6068518E0,1.2016821E0,1.7267666E0,0E0,0E0,0E0,0E0,0E0,0E0,0E0,0E0],"parents":[2147483647,0,0,1,1,2,2,3,3,4,4,5,5,6,6],"right_children":[2,4,6,8,10,12,14,-1,-1,-1,-1,-1,-1,-1,-1],"split_conditions":[1.1E1,8E0,1.4E1,1E0,2E0,1E0,1.4227E4,1.0754667E-3,-2.3668641E-3,-6.3278107E-4,1.080389E-3,7.0194073E-4,2.8884509E-3,4.90015E-3,9.538374E-3],"split_indices":[6,6,6,73,5,26,3,0,0,0,0,0,0,0,0],"split_type":[0,0,0,0,0,0,0,0,0,0,0,0,0,0,0],"sum_hessian":[1.065E3,8.76E2,1.89E2,3.83E2,4.93E2,1.49E2,4E1,5.6E1,3.27E2,2.67E2,2.26E2,3.3E1,1.16E2,2.3E1,1.7E1],"tree_param":{"num_deleted":"0","num_feature":"83","num_nodes":"15","size_leaf_vector":"1"}},{"base_weights":[-3.8862058E-3,-7.876257E-2,2.9669717E-1,-1.9123185E-1,1.2816204E-2,4.9864084E-1,1.436351E-1,-4.2966966E-4,-2.2852176E-3,1.6193279E-3,-6.3940935E-4,4.3439525E-3,1.2075313E-2,1.0667386E-3,4.0018037E-3],"categories":[],"categories_nodes":[],"categories_segments":[],"categories_sizes":[],"default_left":[0,0,0,0,0,0,0,0,0,0,0,0,0,0,0],"id":19,"left_children":[1,3,5,7,9,11,13,-1,-1,-1,-1,-1,-1,-1,-1],"loss_changes":[2.3925367E1,8.767579E0,6.4812794E0,2.1021776E0,5.389863E0,3.619875E0,1.1141436E0,0E0,0E0,0E0,0E0,0E0,0E0,0E0,0E0],"parents":[2147483647,0,0,1,1,2,2,3,3,4,4,5,5,6,6],"right_children":[2,4,6,8,10,12,14,-1,-1,-1,-1,-1,-1,-1,-1],"split_conditions":[2.5E0,1.5E0,1E0,1E0,1.952E3,4E0,1.3094E4,-4.2966966E-4,-2.2852176E-3,1.6193279E-3,-6.3940935E-4,4.3439525E-3,1.2075313E-2,1.0667386E-3,4.0018037E-3],"split_indices":[1,1,16,27,4,1,3,0,0,0,0,0,0,0,0],"split_type":[0,0,0,0,0,0,0,0,0,0,0,0,0,0,0],"sum_hessian":[1.061E3,8.5E2,2.11E2,3.81E2,4.69E2,9E1,1.21E2,7.7E1,3.04E2,1.59E2,3.1E2,8.4E1,6E0,1.07E2,1.4E1],"tree_param":{"num_deleted":"0","num_feature":"83","num_nodes":"15","size_leaf_vector":"1"}},{"base_weights":[5.153476E-3,3.0050495E-1,-8.3065346E-2,1.87796E-1,5.9443295E-1,-1.9024816E-1,-1.648508E-3,8.880318E-4,2.8580208E-3,5.2554267E-3,1.2187089E-2,-2.4358071E-3,9.4722863E-4,1.6729691E-3,-5.057355E-4],"categories":[],"categories_nodes":[],"categories_segments":[],"categories_sizes":[],"default_left":[0,0,0,0,0,0,0,0,0,0,0,0,0,0,0],"id":20,"left_children":[1,3,5,7,9,11,13,-1,-1,-1,-1,-1,-1,-1,-1],"loss_changes":[2.7982576E1,8.071062E0,7.21649E0,1.720962E0,2.2839603E0,5.448844E0,3.9015875E0,0E0,0E0,0E0,0E0,0E0,0E0,0E0,0E0],"parents":[2147483647,0,0,1,1,2,2,3,3,4,4,5,5,6,6],"right_children":[2,4,6,8,10,12,14,-1,-1,-1,-1,-1,-1,-1,-1],"split_conditions":[-8.9402054E1,1.2E1,8E0,-8.94501E1,1.8E1,1E0,1.941E3,8.880318E-4,2.8580208E-3,5.2554267E-3,1.2187089E-2,-2.4358071E-3,9.4722863E-4,1.6729691E-3,-5.057355E-4],"split_indices":[10,6,6,10,6,33,4,0,0,0,0,0,0,0,0],"split_type":[0,0,0,0,0,0,0,0,0,0,0,0,0,0,0],"sum_hessian":[1.072E3,2.46E2,8.26E2,1.79E2,6.7E1,3.56E2,4.7E2,9E1,8.9E1,6.2E1,5E0,3E2,5.6E1,1.05E2,3.65E2],"tree_param":{"num_deleted":"0","num_feature":"83","num_nodes":"15","size_leaf_vector":"1"}},{"base_weights":[-8.094666E-3,-1.336166E-1,1.5246148E-1,7.996855E-2,-1.61733E-1,3.7067902E-1,9.4093524E-2,1.4278879E-4,2.6894542E-3,-2.5764927E-3,-1.3343039E-3,3.0015812E-3,7.1333884E-3,8.3628675E-4,6.233286E-3],"categories":[],"categories_nodes":[],"categories_segments":[],"categories_sizes":[],"default_left":[0,0,0,0,0,0,0,0,0,0,0,0,0,0,0],"id":21,"left_children":[1,3,5,7,9,11,13,-1,-1,-1,-1,-1,-1,-1,-1],"loss_changes":[2.1403042E1,3.59206E0,5.900523E0,8.651278E-1,1.3962593E0,2.154025E0,1.9915278E0,0E0,0E0,0E0,0E0,0E0,0E0,0E0,0E0],"parents":[2147483647,0,0,1,1,2,2,3,3,4,4,5,5,6,6],"right_children":[2,4,6,8,10,12,14,-1,-1,-1,-1,-1,-1,-1,-1],"split_conditions":[1E0,1.921E3,1.942E3,1E0,1E0,3E0,2.007E3,1.4278879E-4,2.6894542E-3,-2.5764927E-3,-1.3343039E-3,3.0015812E-3,7.1333884E-3,8.3628675E-4,6.233286E-3],"split_indices":[26,4,4,24,12,5,4,0,0,0,0,0,0,0,0],"split_type":[0,0,0,0,0,0,0,0,0,0,0,0,0,0,0],"sum_hessian":[1.06E3,5.95E2,4.65E2,6.9E1,5.26E2,9.7E1,3.68E2,5.2E1,1.7E1,1.18E2,4.08E2,8.2E1,1.5E1,3.62E2,6E0],"tree_param":{"num_deleted":"0","num_feature":"83","num_nodes":"15","size_leaf_vector":"1"}},{"base_weights":[1.9123037E-3,2.8692916E-1,-8.466396E-2,1.4996396E-1,4.8128977E-1,-1.9462924E-1,-5.429984E-3,1.2296477E-3,6.6081034E-3,3.9354973E-3,6.5543894E-3,-2.4259293E-3,9.7207644E-4,1.5634173E-3,-5.119113E-4],"categories":[],"categories_nodes":[],"categories_segments":[],"categories_sizes":[],"default_left":[0,0,0,0,0,0,0,0,0,0,0,0,0,0,0],"id":22,"left_children":[1,3,5,7,9,11,13,-1,-1,-1,-1,-1,-1,-1,-1],"loss_changes":[2.5736366E1,6.396639E0,6.9693313E0,1.9048548E0,1.2700386E0,4.7127676E0,3.457736E0,0E0,0E0,0E0,0E0,0E0,0E0,0E0,0E0],"parents":[2147483647,0,0,1,1,2,2,3,3,4,4,5,5,6,6],"right_children":[2,4,6,8,10,12,14,-1,-1,-1,-1,-1,-1,-1,-1],"split_conditions":[-8.9402054E1,1.1E1,8E0,1E0,1.4E1,1E0,1.941E3,1.2296477E-3,6.6081034E-3,3.9354973E-3,6.5543894E-3,-2.4259293E-3,9.7207644E-4,1.5634173E-3,-5.119113E-4],"split_indices":[10,6,6,33,6,33,4,0,0,0,0,0,0,0,0],"split_type":[0,0,0,0,0,0,0,0,0,0,0,0,0,0,0],"sum_hessian":[1.041E3,2.42E2,7.99E2,1.43E2,9.9E1,3.34E2,4.65E2,1.37E2,6E0,6.8E1,3.1E1,2.87E2,4.7E1,1.02E2,3.63E2],"tree_param":{"num_deleted":"0","num_feature":"83","num_nodes":"15","size_leaf_vector":"1"}},{"base_weights":[1.1031186E-4,-6.538838E-2,4.4399273E-1,-2.8297362E-1,-8.210209E-3,3.4093407E-1,8.787887E-1,-4.674237E-3,-2.0953887E-3,1.3505034E-3,-6.3010067E-4,6.614045E-3,2.4348276E-3,6.450549E-3,1.1388754E-2],"categories":[],"categories_nodes":[],"categories_segments":[],"categories_sizes":[],"default_left":[0,0,0,0,0,0,0,0,0,0,0,0,0,0,0],"id":23,"left_children":[1,3,5,7,9,11,13,-1,-1,-1,-1,-1,-1,-1,-1],"loss_changes":[3.1428646E1,1.17172165E1,5.928911E0,2.5568857E0,5.872951E0,3.399208E0,8.459301E-1,0E0,0E0,0E0,0E0,0E0,0E0,0E0,0E0],"parents":[2147483647,0,0,1,1,2,2,3,3,4,4,5,5,6,6],"right_children":[2,4,6,8,10,12,14,-1,-1,-1,-1,-1,-1,-1,-1],"split_conditions":[2.231E3,1.083E3,3.274E3,8.28E2,1.943E3,1.949E3,3.766E3,-4.674237E-3,-2.0953887E-3,1.3505034E-3,-6.3010067E-4,6.614045E-3,2.4348276E-3,6.450549E-3,1.1388754E-2],"split_indices":[2,2,2,2,4,4,2,0,0,0,0,0,0,0,0],"split_type":[0,0,0,0,0,0,0,0,0,0,0,0,0,0,0],"sum_hessian":[1.079E3,9.41E2,1.38E2,1.95E2,7.46E2,1.13E2,2.5E1,5.4E1,1.41E2,2.06E2,5.4E2,2.5E1,8.8E1,1.5E1,1E1],"tree_param":{"num_deleted":"0","num_feature":"83","num_nodes":"15","size_leaf_vector":"1"}},{"base_weights":[7.485017E-3,2.8255257E-1,-7.879369E-2,1.721369E-1,4.6632183E-1,-1.4812392E-1,2.185508E-2,2.507745E-4,2.4815775E-3,-8.785884E-5,5.091268E-3,-2.7717198E-3,-1.0701215E-3,1.1760354E-3,-1.219283E-3],"categories":[],"categories_nodes":[],"categories_segments":[],"categories_sizes":[],"default_left":[0,0,0,0,0,0,0,0,0,0,0,0,0,0,0],"id":24,"left_children":[1,3,5,7,9,11,13,-1,-1,-1,-1,-1,-1,-1,-1],"loss_changes":[2.5843197E1,5.195389E0,5.788E0,1.827229E0,1.9771633E0,2.5752888E0,4.681365E0,0E0,0E0,0E0,0E0,0E0,0E0,0E0,0E0],"parents":[2147483647,0,0,1,1,2,2,3,3,4,4,5,5,6,6],"right_children":[2,4,6,8,10,12,14,-1,-1,-1,-1,-1,-1,-1,-1],"split_conditions":[-8.9402054E1,4E0,2E0,1E0,4.3061813E1,3E0,4.309833E1,2.507745E-4,2.4815775E-3,-8.785884E-5,5.091268E-3,-2.7717198E-3,-1.0701215E-3,1.1760354E-3,-1.219283E-3],"split_indices":[10,0,5,26,9,0,9,0,0,0,0,0,0,0,0],"split_type":[0,0,0,0,0,0,0,0,0,0,0,0,0,0,0],"sum_hessian":[1.087E3,2.59E2,8.28E2,1.63E2,9.6E1,4.9E2,3.38E2,5.6E1,1.07E2,8E0,8.8E1,1.17E2,3.73E2,2.03E2,1.35E2],"tree_param":{"num_deleted":"0","num_feature":"83","num_nodes":"15","size_leaf_vector":"1"}},{"base_weights":[6.6937446E-3,2.6633847E-1,-6.868491E-2,1.6975981E-1,5.288519E-1,-1.7532845E-1,7.1852566E-3,6.8088174E-3,1.4102573E-3,4.5302333E-3,8.461302E-3,-7.981778E-4,-3.1660297E-3,1.6395918E-3,-3.6545767E-4],"categories":[],"categories_nodes":[],"categories_segments":[],"categories_sizes":[],"default_left":[0,0,0,0,0,0,0,0,0,0,0,0,0,0,0],"id":25,"left_children":[1,3,5,7,9,11,13,-1,-1,-1,-1,-1,-1,-1,-1],"loss_changes":[2.0529404E1,5.8935757E0,6.579294E0,2.4594498E0,1.1323853E0,4.5354404E0,3.269393E0,0E0,0E0,0E0,0E0,0E0,0E0,0E0,0E0],"parents":[2147483647,0,0,1,1,2,2,3,3,4,4,5,5,6,6],"right_children":[2,4,6,8,10,12,14,-1,-1,-1,-1,-1,-1,-1,-1],"split_conditions":[-8.9402054E1,1.2E1,8E0,1E0,1.6E1,4.310127E1,1.94E3,6.8088174E-3,1.4102573E-3,4.5302333E-3,8.461302E-3,-7.981778E-4,-3.1660297E-3,1.6395918E-3,-3.6545767E-4],"split_indices":[10,6,6,69,6,9,4,0,0,0,0,0,0,0,0],"split_type":[0,0,0,0,0,0,0,0,0,0,0,0,0,0,0],"sum_hessian":[1.047E3,2.35E2,8.12E2,1.73E2,6.2E1,3.37E2,4.75E2,8E0,1.65E2,5.2E1,1E1,2.02E2,1.35E2,1.03E2,3.72E2],"tree_param":{"num_deleted":"0","num_feature":"83","num_nodes":"15","size_leaf_vector":"1"}},{"base_weights":[4.268513E-3,-7.743535E-2,3.061201E-1,-1.9797932E-1,2.0788994E-2,2.1608035E-1,6.842873E-1,-1.2927704E-3,-3.0853632E-3,7.923344E-4,-1.0712602E-3,3.232958E-3,5.946769E-4,5.1525305E-3,1.1905751E-2],"categories":[],"categories_nodes":[],"categories_segments":[],"categories_sizes":[],"default_left":[0,0,0,0,0,0,0,0,0,0,0,0,0,0,0],"id":26,"left_children":[1,3,5,7,9,11,13,-1,-1,-1,-1,-1,-1,-1,-1],"loss_changes":[2.6165892E1,9.89081E0,7.547455E0,2.8084326E0,3.4548879E0,3.0703735E0,3.066494E0,0E0,0E0,0E0,0E0,0E0,0E0,0E0,0E0],"parents":[2147483647,0,0,1,1,2,2,3,3,4,4,5,5,6,6],"right_children":[2,4,6,8,10,12,14,-1,-1,-1,-1,-1,-1,-1,-1],"split_conditions":[2.5E0,1.5E0,1.4E1,4.3099983E1,4.3097546E1,4.30856E1,4E0,-1.2927704E-3,-3.0853632E-3,7.923344E-4,-1.0712602E-3,3.232958E-3,5.946769E-4,5.1525305E-3,1.1905751E-2],"split_indices":[1,1,6,9,9,9,1,0,0,0,0,0,0,0,0],"split_type":[0,0,0,0,0,0,0,0,0,0,0,0,0,0,0],"sum_hessian":[1.059E3,8.34E2,2.25E2,3.74E2,4.6E2,1.83E2,4.2E1,2.32E2,1.42E2,3.16E2,1.44E2,1.08E2,7.5E1,3.3E1,9E0],"tree_param":{"num_deleted":"0","num_feature":"83","num_nodes":"15","size_leaf_vector":"1"}},{"base_weights":[3.266129E-4,-6.9331355E-2,3.0298886E-1,-1.6854434E-1,6.6780318E-3,1.9901852E-1,6.46737E-1,-2.1307596E-3,1.077071E-3,1.5391889E-3,-3.502569E-4,2.450602E-3,4.555965E-4,4.751736E-3,8.460106E-3],"categories":[],"categories_nodes":[],"categories_segments":[],"categories_sizes":[],"default_left":[0,0,0,0,0,0,0,0,0,0,0,0,0,0,0],"id":27,"left_children":[1,3,5,7,9,11,13,-1,-1,-1,-1,-1,-1,-1,-1],"loss_changes":[2.2537476E1,6.5543575E0,7.019207E0,4.660777E0,3.0326536E0,1.0839887E0,1.1706505E0,0E0,0E0,0E0,0E0,0E0,0E0,0E0,0E0],"parents":[2147483647,0,0,1,1,2,2,3,3,4,4,5,5,6,6],"right_children":[2,4,6,8,10,12,14,-1,-1,-1,-1,-1,-1,-1,-1],"split_conditions":[1.1E1,8E0,1.4E1,1E0,5.929E3,1E0,1.3094E4,-2.1307596E-3,1.077071E-3,1.5391889E-3,-3.502569E-4,2.450602E-3,4.555965E-4,4.751736E-3,8.460106E-3],"split_indices":[6,6,6,33,3,27,3,0,0,0,0,0,0,0,0],"split_type":[0,0,0,0,0,0,0,0,0,0,0,0,0,0,0],"sum_hessian":[1.067E3,8.68E2,1.99E2,3.76E2,4.92E2,1.54E2,4.5E1,3.24E2,5.2E1,1.08E2,3.84E2,1.18E2,3.6E1,2.6E1,1.9E1],"tree_param":{"num_deleted":"0","num_feature":"83","num_nodes":"15","size_leaf_vector":"1"}},{"base_weights":[1.5820067E-3,-7.994085E-2,3.0381486E-1,-1.9402689E-1,1.2469018E-2,2.1020624E-1,6.926191E-1,-1.2100277E-3,-3.0767953E-3,1.524992E-3,-6.449648E-4,3.5171981E-3,7.67379E-4,8.220781E-3,7.293701E-5],"categories":[],"categories_nodes":[],"categories_segments":[],"categories_sizes":[],"default_left":[0,0,0,0,0,0,0,0,0,0,0,0,0,0,0],"id":28,"left_children":[1,3,5,7,9,11,13,-1,-1,-1,-1,-1,-1,-1,-1],"loss_changes":[2.6560366E1,8.953152E0,8.188959E0,3.1165352E0,5.0752583E0,3.4860992E0,3.8977528E0,0E0,0E0,0E0,0E0,0E0,0E0,0E0,0E0],"parents":[2147483647,0,0,1,1,2,2,3,3,4,4,5,5,6,6],"right_children":[2,4,6,8,10,12,14,-1,-1,-1,-1,-1,-1,-1,-1],"split_conditions":[2.5E0,1.5E0,3.5E0,4.3101E1,1.952E3,-8.941895E1,-8.931785E1,-1.2100277E-3,-3.0767953E-3,1.524992E-3,-6.449648E-4,3.5171981E-3,7.67379E-4,8.220781E-3,7.293701E-5],"split_indices":[1,1,1,9,4,10,10,0,0,0,0,0,0,0,0],"split_type":[0,0,0,0,0,0,0,0,0,0,0,0,0,0,0],"sum_hessian":[1.076E3,8.48E2,2.28E2,3.79E2,4.69E2,1.85E2,4.3E1,2.32E2,1.47E2,1.66E2,3.03E2,8.9E1,9.6E1,3.6E1,7E0],"tree_param":{"num_deleted":"0","num_feature":"83","num_nodes":"15","size_leaf_vector":"1"}},{"base_weights":[3.3147216E-3,-7.3113665E-2,2.8939924E-1,-1.8265958E-1,1.2421307E-2,2.003323E-1,6.431945E-1,-1.155393E-3,-2.9778993E-3,1.6301189E-3,-4.954471E-4,3.0168649E-3,2.1863324E-4,4.534681E-3,9.025914E-3],"categories":[],"categories_nodes":[],"categories_segments":[],"categories_sizes":[],"default_left":[0,0,0,0,0,0,0,0,0,0,0,0,0,0,0],"id":29,"left_children":[1,3,5,7,9,11,13,-1,-1,-1,-1,-1,-1,-1,-1],"loss_changes":[2.343855E1,7.9292946E0,6.9927387E0,2.8325262E0,4.44987E0,3.2855258E0,1.8053513E0,0E0,0E0,0E0,0E0,0E0,0E0,0E0,0E0],"parents":[2147483647,0,0,1,1,2,2,3,3,4,4,5,5,6,6],"right_children":[2,4,6,8,10,12,14,-1,-1,-1,-1,-1,-1,-1,-1],"split_conditions":[2.5E0,1.5E0,3.5E0,4.3099983E1,1.947E3,4.3085335E1,1.3329E4,-1.155393E-3,-2.9778993E-3,1.6301189E-3,-4.954471E-4,3.0168649E-3,2.1863324E-4,4.534681E-3,9.025914E-3],"split_indices":[1,1,1,9,4,9,3,0,0,0,0,0,0,0,0],"split_type":[0,0,0,0,0,0,0,0,0,0,0,0,0,0,0],"sum_hessian":[1.07E3,8.45E2,2.25E2,3.7E2,4.75E2,1.81E2,4.4E1,2.35E2,1.35E2,1.38E2,3.37E2,1.15E2,6.6E1,2.7E1,1.7E1],"tree_param":{"num_deleted":"0","num_feature":"83","num_nodes":"15","size_leaf_vector":"1"}},{"base_weights":[1.0798727E-3,-9.194175E-2,2.1802974E-1,1.509734E-1,-1.12699844E-1,1.484003E-1,6.615023E-1,-1.3183038E-3,2.685804E-3,-2.1019184E-3,-2.4861164E-4,2.0909018E-3,4.0573496E-4,4.448953E-3,9.116956E-3],"categories":[],"categories_nodes":[],"categories_segments":[],"categories_sizes":[],"default_left":[0,0,0,0,0,0,0,0,0,0,0,0,0,0,0],"id":30,"left_children":[1,3,5,7,9,11,13,-1,-1,-1,-1,-1,-1,-1,-1],"loss_changes":[2.14523E1,3.768601E0,9.752152E0,1.9977299E0,5.869383E0,1.8042026E0,1.924717E0,0E0,0E0,0E0,0E0,0E0,0E0,0E0,0E0],"parents":[2147483647,0,0,1,1,2,2,3,3,4,4,5,5,6,6],"right_children":[2,4,6,8,10,12,14,-1,-1,-1,-1,-1,-1,-1,-1],"split_conditions":[1E1,1E0,1.4E1,7.2E3,8E0,1E0,1.3094E4,-1.3183038E-3,2.685804E-3,-2.1019184E-3,-2.4861164E-4,2.0909018E-3,4.0573496E-4,4.448953E-3,9.116956E-3],"split_indices":[6,69,6,3,6,59,3,0,0,0,0,0,0,0,0],"split_type":[0,0,0,0,0,0,0,0,0,0,0,0,0,0,0],"sum_hessian":[1.061E3,7.43E2,3.18E2,5.8E1,6.85E2,2.76E2,4.2E1,1.7E1,4.1E1,3.24E2,3.61E2,1.76E2,1E2,2.4E1,1.8E1],"tree_param":{"num_deleted":"0","num_feature":"83","num_nodes":"15","size_leaf_vector":"1"}},{"base_weights":[-5.4265293E-3,1.4415954E-1,-1.2296731E-1,2.1170448E-1,-2.1292925E-2,-5.7894804E-2,-2.1910861E-1,-1.5649674E-3,2.3842591E-3,-4.0783852E-4,2.5827726E-3,3.316874E-4,-1.2468846E-3,-2.6807454E-3,-5.430785E-4],"categories":[],"categories_nodes":[],"categories_segments":[],"categories_sizes":[],"default_left":[0,0,0,0,0,0,0,0,0,0,0,0,0,0,0],"id":31,"left_children":[1,3,5,7,9,11,13,-1,-1,-1,-1,-1,-1,-1,-1],"loss_changes":[1.8619972E1,5.2122793E0,3.697215E0,3.2939777E0,7.516087E-1,2.163412E0,1.9140806E0,0E0,0E0,0E0,0E0,0E0,0E0,0E0,0E0],"parents":[2147483647,0,0,1,1,2,2,3,3,4,4,5,5,6,6],"right_children":[2,4,6,8,10,12,14,-1,-1,-1,-1,-1,-1,-1,-1],"split_conditions":[1E0,4.3092445E1,4.309833E1,4.3045628E1,1.8883E4,1.95E3,1.967E3,-1.5649674E-3,2.3842591E-3,-4.0783852E-4,2.5827726E-3,3.316874E-4,-1.2468846E-3,-2.6807454E-3,-5.430785E-4],"split_indices":[27,9,9,9,3,4,4,0,0,0,0,0,0,0,0],"split_type":[0,0,0,0,0,0,0,0,0,0,0,0,0,0,0],"sum_hessian":[1.057E3,4.65E2,5.92E2,3.3E2,1.35E2,3.54E2,2.38E2,2.2E1,3.08E2,1.27E2,8E0,1.5E2,2.04E2,1.83E2,5.5E1],"tree_param":{"num_deleted":"0","num_feature":"83","num_nodes":"15","size_leaf_vector":"1"}},{"base_weights":[1.1199411E-3,-5.8996692E-2,3.9788198E-1,-2.566347E-1,-9.381161E-3,5.515964E-1,1.2862997E-1,-4.496638E-3,-1.9958878E-3,1.7416324E-3,-5.0349E-4,4.7533563E-3,1.1294012E-2,4.790483E-3,7.4847497E-4],"categories":[],"categories_nodes":[],"categories_segments":[],"categories_sizes":[],"default_left":[0,0,0,0,0,0,0,0,0,0,0,0,0,0,0],"id":32,"left_children":[1,3,5,7,9,11,13,-1,-1,-1,-1,-1,-1,-1,-1],"loss_changes":[2.6284523E1,9.381852E0,5.9302998E0,2.0244646E0,5.768642E0,3.517027E0,9.818481E-1,0E0,0E0,0E0,0E0,0E0,0E0,0E0,0E0],"parents":[2147483647,0,0,1,1,2,2,3,3,4,4,5,5,6,6],"right_children":[2,4,6,8,10,12,14,-1,-1,-1,-1,-1,-1,-1,-1],"split_conditions":[2.231E3,1.083E3,-8.937438E1,7.85E2,-8.9402054E1,3.766E3,1.941E3,-4.496638E-3,-1.9958878E-3,1.7416324E-3,-5.0349E-4,4.7533563E-3,1.1294012E-2,4.790483E-3,7.4847497E-4],"split_indices":[2,2,10,2,10,2,4,0,0,0,0,0,0,0,0],"split_type":[0,0,0,0,0,0,0,0,0,0,0,0,0,0,0],"sum_hessian":[1.1E3,9.56E2,1.44E2,1.91E2,7.65E2,9.1E1,5.3E1,4.2E1,1.49E2,1.39E2,6.26E2,8.2E1,9E0,6E0,4.7E1],"tree_param":{"num_deleted":"0","num_feature":"83","num_nodes":"15","size_leaf_vector":"1"}},{"base_weights":[-2.6834468E-4,-5.9522517E-2,4.136285E-1,-2.502652E-1,-5.017711E-3,5.5323464E-1,1.5197504E-1,-4.095051E-3,-1.8596242E-3,1.7984507E-3,-5.6072435E-4,4.9976716E-3,1.1917506E-2,3.937577E-3,4.0836364E-4],"categories":[],"categories_nodes":[],"categories_segments":[],"categories_sizes":[],"default_left":[0,0,0,0,0,0,0,0,0,0,0,0,0,0,0],"id":33,"left_children":[1,3,5,7,9,11,13,-1,-1,-1,-1,-1,-1,-1,-1],"loss_changes":[2.6241968E1,9.729769E0,4.810732E0,2.0536785E0,6.8904724E0,2.374567E0,1.2737478E0,0E0,0E0,0E0,0E0,0E0,0E0,0E0,0E0],"parents":[2147483647,0,0,1,1,2,2,3,3,4,4,5,5,6,6],"right_children":[2,4,6,8,10,12,14,-1,-1,-1,-1,-1,-1,-1,-1],"split_conditions":[2.231E3,1.083E3,-8.937438E1,8.28E2,-8.939334E1,4.592E3,1.958E3,-4.095051E-3,-1.8596242E-3,1.7984507E-3,-5.6072435E-4,4.9976716E-3,1.1917506E-2,3.937577E-3,4.0836364E-4],"split_indices":[2,2,10,2,10,2,4,0,0,0,0,0,0,0,0],"split_type":[0,0,0,0,0,0,0,0,0,0,0,0,0,0,0],"sum_hessian":[1.068E3,9.35E2,1.33E2,2.07E2,7.28E2,8.6E1,4.7E1,5.8E1,1.49E2,1.57E2,5.71E2,8.1E1,5E0,1.4E1,3.3E1],"tree_param":{"num_deleted":"0","num_feature":"83","num_nodes":"15","size_leaf_vector":"1"}},{"base_weights":[-5.755484E-3,-1.1605446E-1,1.3006212E-1,-1.4409336E-1,4.1629825E-2,5.3097464E-2,3.1106907E-1,-2.356155E-3,-1.0626053E-3,-8.3983E-4,1.3503886E-3,2.5615857E-3,3.028705E-4,2.6416983E-3,9.084116E-3],"categories":[],"categories_nodes":[],"categories_segments":[],"categories_sizes":[],"default_left":[0,0,0,0,0,0,0,0,0,0,0,0,0,0,0],"id":34,"left_children":[1,3,5,7,9,11,13,-1,-1,-1,-1,-1,-1,-1,-1],"loss_changes":[1.6044275E1,2.6189847E0,6.670429E0,1.7131586E0,1.0673448E0,1.5578268E0,3.7661543E0,0E0,0E0,0E0,0E0,0E0,0E0,0E0,0E0],"parents":[2147483647,0,0,1,1,2,2,3,3,4,4,5,5,6,6],"right_children":[2,4,6,8,10,12,14,-1,-1,-1,-1,-1,-1,-1,-1],"split_conditions":[1E0,1E0,4E0,3E0,1E0,1E0,1E0,-2.356155E-3,-1.0626053E-3,-8.3983E-4,1.3503886E-3,2.5615857E-3,3.028705E-4,2.6416983E-3,9.084116E-3],"split_indices":[26,62,0,0,14,43,23,0,0,0,0,0,0,0,0],"split_type":[0,0,0,0,0,0,0,0,0,0,0,0,0,0,0],"sum_hessian":[1.069E3,5.9E2,4.79E2,5.01E2,8.9E1,3.37E2,1.42E2,1.45E2,3.56E2,3.8E1,5.1E1,3.3E1,3.04E2,1.33E2,9E0],"tree_param":{"num_deleted":"0","num_feature":"83","num_nodes":"15","size_leaf_vector":"1"}},{"base_weights":[1.1824754E-3,1.5067655E-1,-1.1730555E-1,1.3121256E-1,8.248176E-1,8.179919E-2,-1.4411077E-1,3.0584307E-3,8.648072E-4,5.6115184E-3,1.03890225E-2,2.771939E-4,2.2834814E-3,-2.3548403E-3,-1.1777888E-3],"categories":[],"categories_nodes":[],"categories_segments":[],"categories_sizes":[],"default_left":[0,0,0,0,0,0,0,0,0,0,0,0,0,0,0],"id":35,"left_children":[1,3,5,7,9,11,13,-1,-1,-1,-1,-1,-1,-1,-1],"loss_changes":[1.8829153E1,6.0588684E0,3.1766558E0,3.551238E0,1.5082645E-1,5.563693E-1,1.2306194E0,0E0,0E0,0E0,0E0,0E0,0E0,0E0,0E0],"parents":[2147483647,0,0,1,1,2,2,3,3,4,4,5,5,6,6],"right_children":[2,4,6,8,10,12,14,-1,-1,-1,-1,-1,-1,-1,-1],"split_conditions":[1E0,1E0,1.921E3,1.942E3,2.024E3,1E0,1E0,3.0584307E-3,8.648072E-4,5.6115184E-3,1.03890225E-2,2.771939E-4,2.2834814E-3,-2.3548403E-3,-1.1777888E-3],"split_indices":[27,23,4,4,7,24,12,0,0,0,0,0,0,0,0],"split_type":[0,0,0,0,0,0,0,0,0,0,0,0,0,0,0],"sum_hessian":[1.061E3,4.69E2,5.92E2,4.57E2,1.2E1,7E1,5.22E2,9.2E1,3.65E2,7E0,5E0,5.2E1,1.8E1,1.15E2,4.07E2],"tree_param":{"num_deleted":"0","num_feature":"83","num_nodes":"15","size_leaf_vector":"1"}},{"base_weights":[1.5591277E-3,2.6692384E-1,-7.480669E-2,2.3764054E-1,8.035032E-1,-9.1020994E-2,3.6277068E-1,1.2707503E-3,3.1938362E-3,4.700443E-3,9.745389E-3,-6.46146E-4,-2.013406E-3,6.823955E-3,1.4180916E-3],"categories":[],"categories_nodes":[],"categories_segments":[],"categories_sizes":[],"default_left":[0,0,0,0,0,0,0,0,0,0,0,0,0,0,0],"id":36,"left_children":[1,3,5,7,9,11,13,-1,-1,-1,-1,-1,-1,-1,-1],"loss_changes":[2.1764091E1,3.5801296E0,5.950259E0,2.029109E0,2.2632456E-1,2.3320708E0,2.0219731E0,0E0,0E0,0E0,0E0,0E0,0E0,0E0,0E0],"parents":[2147483647,0,0,1,1,2,2,3,3,4,4,5,5,6,6],"right_children":[2,4,6,8,10,12,14,-1,-1,-1,-1,-1,-1,-1,-1],"split_conditions":[-8.9402054E1,1E0,1E0,2E0,2.024E3,1E0,-8.936699E1,1.2707503E-3,3.1938362E-3,4.700443E-3,9.745389E-3,-6.46146E-4,-2.013406E-3,6.823955E-3,1.4180916E-3],"split_indices":[10,23,53,5,7,51,10,0,0,0,0,0,0,0,0],"split_type":[0,0,0,0,0,0,0,0,0,0,0,0,0,0,0],"sum_hessian":[1.072E3,2.39E2,8.33E2,2.28E2,1.1E1,8.04E2,2.9E1,9.8E1,1.3E2,5E0,6E0,6.5E2,1.54E2,1.1E1,1.8E1],"tree_param":{"num_deleted":"0","num_feature":"83","num_nodes":"15","size_leaf_vector":"1"}},{"base_weights":[-1.8392479E-3,-7.331579E-2,2.5921354E-1,-1.7341644E-1,9.355694E-3,4.0834346E-1,1.4339514E-1,-1.6004787E-3,-5.700479E-3,-5.137891E-4,6.2645605E-4,3.0144616E-3,7.169775E-3,3.963537E-3,1.2372016E-3],"categories":[],"categories_nodes":[],"categories_segments":[],"categories_sizes":[],"default_left":[0,0,0,0,0,0,0,0,0,0,0,0,0,0,0],"id":37,"left_children":[1,3,5,7,9,11,13,-1,-1,-1,-1,-1,-1,-1,-1],"loss_changes":[1.9965637E1,6.9530163E0,3.9140034E0,1.9236717E0,1.4952645E0,3.083084E0,6.0294414E-1,0E0,0E0,0E0,0E0,0E0,0E0,0E0,0E0],"parents":[2147483647,0,0,1,1,2,2,3,3,4,4,5,5,6,6],"right_children":[2,4,6,8,10,12,14,-1,-1,-1,-1,-1,-1,-1,-1],"split_conditions":[2.5E0,1.5E0,1E0,1E0,3.10781E2,3.5E0,1E0,-1.6004787E-3,-5.700479E-3,-5.137891E-4,6.2645605E-4,3.0144616E-3,7.169775E-3,3.963537E-3,1.2372016E-3],"split_indices":[1,1,16,55,8,1,43,0,0,0,0,0,0,0,0],"split_type":[0,0,0,0,0,0,0,0,0,0,0,0,0,0,0],"sum_hessian":[1.068E3,8.39E2,2.29E2,3.79E2,4.6E2,9.9E1,1.3E2,3.68E2,1.1E1,2.15E2,2.45E2,7.5E1,2.4E1,8E0,1.22E2],"tree_param":{"num_deleted":"0","num_feature":"83","num_nodes":"15","size_leaf_vector":"1"}},{"base_weights":[1.8053082E-3,-8.639242E-2,1.1349375E-1,-6.3914694E-2,-2.0350054E-1,1.5683217E-1,-1.04635E-1,6.7245425E-4,-7.850776E-4,-1.8305901E-3,-3.1993038E-3,1.3407279E-3,5.3661293E-3,-3.992736E-4,-2.428064E-3],"categories":[],"categories_nodes":[],"categories_segments":[],"categories_sizes":[],"default_left":[0,0,0,0,0,0,0,0,0,0,0,0,0,0,0],"id":38,"left_children":[1,3,5,7,9,11,13,-1,-1,-1,-1,-1,-1,-1,-1],"loss_changes":[1.055987E1,1.5637555E0,4.4878473E0,9.699497E-1,1.69914E-1,3.342267E0,6.9662416E-1,0E0,0E0,0E0,0E0,0E0,0E0,0E0,0E0],"parents":[2147483647,0,0,1,1,2,2,3,3,4,4,5,5,6,6],"right_children":[2,4,6,8,10,12,14,-1,-1,-1,-1,-1,-1,-1,-1],"split_conditions":[2E0,1E0,1E0,1E0,1.1E1,3E0,1E0,6.7245425E-4,-7.850776E-4,-1.8305901E-3,-3.1993038E-3,1.3407279E-3,5.3661293E-3,-3.992736E-4,-2.428064E-3],"split_indices":[5,51,51,73,82,5,13,0,0,0,0,0,0,0,0],"split_type":[0,0,0,0,0,0,0,0,0,0,0,0,0,0,0],"sum_hessian":[1.07E3,5.98E2,4.72E2,5.03E2,9.5E1,3.94E2,7.8E1,5E1,4.53E2,8.3E1,1.2E1,3.73E2,2.1E1,5.4E1,2.4E1],"tree_param":{"num_deleted":"0","num_feature":"83","num_nodes":"15","size_leaf_vector":"1"}},{"base_weights":[-2.1424696E-3,-5.8566228E-2,3.8441837E-1,-2.5317922E-1,-4.6960143E-3,4.7291982E-1,-1.3922912E-3,-4.329597E-3,-2.052284E-3,1.7739724E-3,-5.33313E-4,3.931271E-3,7.88569E-3,-1.0065021E-3,5.707662E-4],"categories":[],"categories_nodes":[],"categories_segments":[],"categories_sizes":[],"default_left":[0,0,0,0,0,0,0,0,0,0,0,0,0,0,0],"id":39,"left_children":[1,3,5,7,9,11,13,-1,-1,-1,-1,-1,-1,-1,-1],"loss_changes":[2.2946102E1,9.62298E0,4.5760612E0,1.626648E0,6.3858953E0,2.4353218E0,1.5663587E-1,0E0,0E0,0E0,0E0,0E0,0E0,0E0,0E0],"parents":[2147483647,0,0,1,1,2,2,3,3,4,4,5,5,6,6],"right_children":[2,4,6,8,10,12,14,-1,-1,-1,-1,-1,-1,-1,-1],"split_conditions":[2.231E3,1.083E3,-8.931785E1,7.85E2,-8.939334E1,3.274E3,-8.929578E1,-4.329597E-3,-2.052284E-3,1.7739724E-3,-5.33313E-4,3.931271E-3,7.88569E-3,-1.0065021E-3,5.707662E-4],"split_indices":[2,2,10,2,10,2,10,0,0,0,0,0,0,0,0],"split_type":[0,0,0,0,0,0,0,0,0,0,0,0,0,0,0],"sum_hessian":[1.05E3,9.17E2,1.33E2,1.98E2,7.19E2,1.08E2,2.5E1,4E1,1.58E2,1.51E2,5.68E2,8.8E1,2E1,9E0,1.6E1],"tree_param":{"num_deleted":"0","num_feature":"83","num_nodes":"15","size_leaf_vector":"1"}},{"base_weights":[8.1264024E-4,-5.6748662E-2,4.359696E-1,-2.1815045E-1,-2.5766893E-4,3.2512024E-1,8.6636215E-1,-4.077404E-3,-1.7577367E-3,-6.354492E-4,7.93101E-4,5.817029E-3,2.6246733E-3,4.8303637E-3,9.885979E-3],"categories":[],"categories_nodes":[],"categories_segments":[],"categories_sizes":[],"default_left":[0,0,0,0,0,0,0,0,0,0,0,0,0,0,0],"id":40,"left_children":[1,3,5,7,9,11,13,-1,-1,-1,-1,-1,-1,-1,-1],"loss_changes":[2.6801266E1,8.616215E0,5.681921E0,1.8967113E0,3.5350132E0,1.4709616E0,6.9387245E-1,0E0,0E0,0E0,0E0,0E0,0E0,0E0,0E0],"parents":[2147483647,0,0,1,1,2,2,3,3,4,4,5,5,6,6],"right_children":[2,4,6,8,10,12,14,-1,-1,-1,-1,-1,-1,-1,-1],"split_conditions":[2.338E3,1.168E3,3.274E3,7.85E2,2E0,7.34E3,1.3E4,-4.077404E-3,-1.7577367E-3,-6.354492E-4,7.93101E-4,5.817029E-3,2.6246733E-3,4.8303637E-3,9.885979E-3],"split_indices":[2,2,2,2,5,3,3,0,0,0,0,0,0,0,0],"split_type":[0,0,0,0,0,0,0,0,0,0,0,0,0,0,0],"sum_hessian":[1.068E3,9.44E2,1.24E2,2.44E2,7E2,1E2,2.4E1,4.3E1,2.01E2,3.9E2,3.1E2,1.8E1,8.2E1,7E0,1.7E1],"tree_param":{"num_deleted":"0","num_feature":"83","num_nodes":"15","size_leaf_vector":"1"}},{"base_weights":[-9.539051E-4,-5.9873395E-2,3.8285935E-1,-2.3957276E-1,-1.0602351E-2,3.4400943E-1,1.2061223E-2,-3.7480583E-3,-1.6964653E-3,-5.9586443E-4,6.91898E-4,3.1136288E-3,7.2748405E-3],"categories":[],"categories_nodes":[],"categories_segments":[],"categories_sizes":[],"default_left":[0,0,0,0,0,0,0,0,0,0,0,0,0],"id":41,"left_children":[1,3,5,7,9,11,-1,-1,-1,-1,-1,-1,-1],"loss_changes":[2.4129532E1,8.1873865E0,4.126766E0,1.8182268E0,2.8456357E0,1.4886074E0,0E0,0E0,0E0,0E0,0E0,0E0,0E0],"parents":[2147483647,0,0,1,1,2,2,3,3,4,4,5,5],"right_children":[2,4,6,8,10,12,-1,-1,-1,-1,-1,-1,-1],"split_conditions":[2.231E3,1.083E3,4.592E3,1E0,1.63E3,1E0,1.2061223E-2,-3.7480583E-3,-1.6964653E-3,-5.9586443E-4,6.91898E-4,3.1136288E-3,7.2748405E-3],"split_indices":[2,2,2,14,2,23,0,0,0,0,0,0,0],"split_type":[0,0,0,0,0,0,0,0,0,0,0,0,0],"sum_hessian":[1.065E3,9.24E2,1.41E2,1.98E2,7.26E2,1.36E2,5E0,6.6E1,1.32E2,4.5E2,2.76E2,1.27E2,9E0],"tree_param":{"num_deleted":"0","num_feature":"83","num_nodes":"13","size_leaf_vector":"1"}},{"base_weights":[2.856916E-3,2.6065534E-1,-7.1205005E-2,1.551078E-1,5.052439E-1,-1.7379692E-1,-7.109545E-4,-2.2912493E-4,2.2297427E-3,4.351723E-3,1.0837313E-2,-1.6274342E-3,-5.178666E-3,-1.7095756E-4,4.8575727E-3],"categories":[],"categories_nodes":[],"categories_segments":[],"categories_sizes":[],"default_left":[0,0,0,0,0,0,0,0,0,0,0,0,0,0,0],"id":42,"left_children":[1,3,5,7,9,11,13,-1,-1,-1,-1,-1,-1,-1,-1],"loss_changes":[2.0276285E1,6.039959E0,5.9663754E0,2.0227385E0,2.406414E0,1.1935863E0,3.9139404E0,0E0,0E0,0E0,0E0,0E0,0E0,0E0,0E0],"parents":[2147483647,0,0,1,1,2,2,3,3,4,4,5,5,6,6],"right_children":[2,4,6,8,10,12,14,-1,-1,-1,-1,-1,-1,-1,-1],"split_conditions":[-8.9402054E1,1.2E1,1.5E0,1.5E0,1.8E1,1E0,3.5E0,-2.2912493E-4,2.2297427E-3,4.351723E-3,1.0837313E-2,-1.6274342E-3,-5.178666E-3,-1.7095756E-4,4.8575727E-3],"split_indices":[10,6,1,1,6,55,1,0,0,0,0,0,0,0,0],"split_type":[0,0,0,0,0,0,0,0,0,0,0,0,0,0,0],"sum_hessian":[1.06E3,2.36E2,8.24E2,1.66E2,7E1,3.35E2,4.89E2,4.6E1,1.2E2,6.4E1,6E0,3.26E2,9E0,4.74E2,1.5E1],"tree_param":{"num_deleted":"0","num_feature":"83","num_nodes":"15","size_leaf_vector":"1"}},{"base_weights":[2.4976803E-3,1.538943E-1,-1.15769215E-1,3.7618805E-2,2.8380245E-1,1.1023165E-1,-1.4864069E-1,1.450352E-3,1.9113543E-4,2.5373334E-3,7.813502E-3,1.4069151E-4,2.1121188E-3,-1.1884162E-3,-2.3337055E-3],"categories":[],"categories_nodes":[],"categories_segments":[],"categories_sizes":[],"default_left":[0,0,0,0,0,0,0,0,0,0,0,0,0,0,0],"id":43,"left_children":[1,3,5,7,9,11,13,-1,-1,-1,-1,-1,-1,-1,-1],"loss_changes":[1.8943623E1,6.998105E0,4.429201E0,4.8621893E-1,3.078165E0,7.350272E-1,1.2826738E0,0E0,0E0,0E0,0E0,0E0,0E0,0E0,0E0],"parents":[2147483647,0,0,1,1,2,2,3,3,4,4,5,5,6,6],"right_children":[2,4,6,8,10,12,14,-1,-1,-1,-1,-1,-1,-1,-1],"split_conditions":[1E0,2E0,1.921E3,1E0,1E0,2.024E3,1E0,1.450352E-3,1.9113543E-4,2.5373334E-3,7.813502E-3,1.4069151E-4,2.1121188E-3,-1.1884162E-3,-2.3337055E-3],"split_indices":[27,5,4,29,23,7,51,0,0,0,0,0,0,0,0],"split_type":[0,0,0,0,0,0,0,0,0,0,0,0,0,0,0],"sum_hessian":[1.056E3,4.63E2,5.93E2,2.45E2,2.18E2,7.5E1,5.18E2,3.5E1,2.1E2,2.07E2,1.1E1,3.9E1,3.6E1,3.85E2,1.33E2],"tree_param":{"num_deleted":"0","num_feature":"83","num_nodes":"15","size_leaf_vector":"1"}},{"base_weights":[2.165746E-3,-4.4769075E-2,4.0934873E-1,-2.2849287E-1,1.0380065E-3,3.0175632E-1,7.0597863E-1,-3.9039087E-3,-1.8458337E-3,1.3360636E-3,-5.100927E-4,5.826041E-3,2.343761E-3,5.4172864E-3,1.0488873E-2],"categories":[],"categories_nodes":[],"categories_segments":[],"categories_sizes":[],"default_left":[0,0,0,0,0,0,0,0,0,0,0,0,0,0,0],"id":44,"left_children":[1,3,5,7,9,11,13,-1,-1,-1,-1,-1,-1,-1,-1],"loss_changes":[1.9970274E1,7.885889E0,3.233801E0,1.2572975E0,5.188582E0,1.3962612E0,1.0088243E0,0E0,0E0,0E0,0E0,0E0,0E0,0E0,0E0],"parents":[2147483647,0,0,1,1,2,2,3,3,4,4,5,5,6,6],"right_children":[2,4,6,8,10,12,14,-1,-1,-1,-1,-1,-1,-1,-1],"split_conditions":[2.323E3,1.076E3,3.5E0,8E2,1.946E3,1.948E3,3.766E3,-3.9039087E-3,-1.8458337E-3,1.3360636E-3,-5.100927E-4,5.826041E-3,2.343761E-3,5.4172864E-3,1.0488873E-2],"split_indices":[2,2,1,2,4,4,2,0,0,0,0,0,0,0,0],"split_type":[0,0,0,0,0,0,0,0,0,0,0,0,0,0,0],"sum_hessian":[1.043E3,9.36E2,1.07E2,1.86E2,7.5E2,8E1,2.7E1,3.8E1,1.48E2,2.11E2,5.39E2,1.4E1,6.6E1,2E1,7E0],"tree_param":{"num_deleted":"0","num_feature":"83","num_nodes":"15","size_leaf_vector":"1"}},{"base_weights":[-4.2318553E-3,2.2981216E-1,-7.358364E-2,1.4906922E-1,4.6312508E-1,-1.6728273E-1,-3.7996368E-3,4.9104454E-4,2.5070983E-3,3.9275745E-3,1.0544301E-2,-2.035167E-3,7.064096E-4,8.373725E-4,-5.039785E-4],"categories":[],"categories_nodes":[],"categories_segments":[],"categories_sizes":[],"default_left":[0,0,0,0,0,0,0,0,0,0,0,0,0,0,0],"id":45,"left_children":[1,3,5,7,9,11,13,-1,-1,-1,-1,-1,-1,-1,-1],"loss_changes":[1.7254627E1,4.508685E0,5.3610964E0,1.8368964E0,2.1656065E0,3.0317001E0,1.9254587E0,0E0,0E0,0E0,0E0,0E0,0E0,0E0,0E0],"parents":[2147483647,0,0,1,1,2,2,3,3,4,4,5,5,6,6],"right_children":[2,4,6,8,10,12,14,-1,-1,-1,-1,-1,-1,-1,-1],"split_conditions":[-8.9402054E1,1.2E1,8E0,-8.94501E1,1.8E1,1E0,7.867E3,4.9104454E-4,2.5070983E-3,3.9275745E-3,1.0544301E-2,-2.035167E-3,7.064096E-4,8.373725E-4,-5.039785E-4],"split_indices":[10,6,6,10,6,33,3,0,0,0,0,0,0,0,0],"split_type":[0,0,0,0,0,0,0,0,0,0,0,0,0,0,0],"sum_hessian":[1.061E3,2.42E2,8.19E2,1.81E2,6.1E1,3.49E2,4.7E2,9.2E1,8.9E1,5.6E1,5E0,3.03E2,4.6E1,1.63E2,3.07E2],"tree_param":{"num_deleted":"0","num_feature":"83","num_nodes":"15","size_leaf_vector":"1"}},{"base_weights":[6.5743965E-3,2.514968E-1,-6.7625426E-2,1.7735809E-1,5.289577E-1,-1.7129017E-1,2.9623013E-3,-2.2713683E-4,2.2975078E-3,4.292916E-3,9.574411E-3,-1.0667314E-3,-2.596074E-3,-1.5046567E-4,5.049176E-3],"categories":[],"categories_nodes":[],"categories_segments":[],"categories_sizes":[],"default_left":[0,0,0,0,0,0,0,0,0,0,0,0,0,0,0],"id":46,"left_children":[1,3,5,7,9,11,13,-1,-1,-1,-1,-1,-1,-1,-1],"loss_changes":[1.9462332E1,5.028266E0,6.01546E0,2.0807152E0,1.8096523E0,1.8726692E0,4.4370246E0,0E0,0E0,0E0,0E0,0E0,0E0,0E0,0E0],"parents":[2147483647,0,0,1,1,2,2,3,3,4,4,5,5,6,6],"right_children":[2,4,6,8,10,12,14,-1,-1,-1,-1,-1,-1,-1,-1],"split_conditions":[-8.9402054E1,1.3E1,1.5E0,1.5E0,4E0,4.3101E1,3.5E0,-2.2713683E-4,2.2975078E-3,4.292916E-3,9.574411E-3,-1.0667314E-3,-2.596074E-3,-1.5046567E-4,5.049176E-3],"split_indices":[10,6,1,1,1,9,1,0,0,0,0,0,0,0,0],"split_type":[0,0,0,0,0,0,0,0,0,0,0,0,0,0,0],"sum_hessian":[1.069E3,2.48E2,8.21E2,1.97E2,5.1E1,3.32E2,4.89E2,4.1E1,1.56E2,4.3E1,8E0,1.93E2,1.39E2,4.73E2,1.6E1],"tree_param":{"num_deleted":"0","num_feature":"83","num_nodes":"15","size_leaf_vector":"1"}},{"base_weights":[6.1148866E-3,-5.2239794E-2,4.0172455E-1,-2.306203E-1,-6.5226858E-3,3.4461364E-1,1.0453429E-2,-4.115458E-3,-1.6874295E-3,4.9174816E-4,-1.1362468E-3,4.157942E-3,7.991679E-4],"categories":[],"categories_nodes":[],"categories_segments":[],"categories_sizes":[],"default_left":[0,0,0,0,0,0,0,0,0,0,0,0,0],"id":47,"left_children":[1,3,5,7,9,11,-1,-1,-1,-1,-1,-1,-1],"loss_changes":[2.5322887E1,7.794715E0,4.822586E0,2.113617E0,4.5511565E0,2.4349775E0,0E0,0E0,0E0,0E0,0E0,0E0,0E0],"parents":[2147483647,0,0,1,1,2,2,3,3,4,4,5,5],"right_children":[2,4,6,8,10,12,-1,-1,-1,-1,-1,-1,-1],"split_conditions":[2.231E3,1.083E3,3.766E3,8E2,4.3097546E1,4.3091995E1,1.0453429E-2,-4.115458E-3,-1.6874295E-3,4.9174816E-4,-1.1362468E-3,4.157942E-3,7.991679E-4],"split_indices":[2,2,2,2,9,9,0,0,0,0,0,0,0],"split_type":[0,0,0,0,0,0,0,0,0,0,0,0,0],"sum_hessian":[1.095E3,9.55E2,1.4E2,1.94E2,7.61E2,1.3E2,1E1,4.8E1,1.46E2,5.01E2,2.6E2,1.02E2,2.8E1],"tree_param":{"num_deleted":"0","num_feature":"83","num_nodes":"13","size_leaf_vector":"1"}},{"base_weights":[7.727897E-4,-5.8154788E-2,3.61651E-1,-2.3379199E-1,-1.0780012E-2,2.9254234E-1,7.39546E-1,-4.0846434E-3,-1.8302676E-3,-5.9246493E-4,6.619398E-4,4.049241E-3,1.7914895E-3,8.211994E-3,4.355955E-3],"categories":[],"categories_nodes":[],"categories_segments":[],"categories_sizes":[],"default_left":[0,0,0,0,0,0,0,0,0,0,0,0,0,0,0],"id":48,"left_children":[1,3,5,7,9,11,13,-1,-1,-1,-1,-1,-1,-1,-1],"loss_changes":[2.3179356E1,7.7940445E0,3.779375E0,1.6898298E0,2.7608786E0,1.5968351E0,2.1311665E-1,0E0,0E0,0E0,0E0,0E0,0E0,0E0,0E0],"parents":[2147483647,0,0,1,1,2,2,3,3,4,4,5,5,6,6],"right_children":[2,4,6,8,10,12,14,-1,-1,-1,-1,-1,-1,-1,-1],"split_conditions":[2.231E3,1.083E3,3.274E3,7.85E2,1.63E3,1E0,1E0,-4.0846434E-3,-1.8302676E-3,-5.9246493E-4,6.619398E-4,4.049241E-3,1.7914895E-3,8.211994E-3,4.355955E-3],"split_indices":[2,2,2,2,2,16,16,0,0,0,0,0,0,0,0],"split_type":[0,0,0,0,0,0,0,0,0,0,0,0,0,0,0],"sum_hessian":[1.088E3,9.36E2,1.52E2,1.98E2,7.38E2,1.3E2,2.2E1,4.3E1,1.55E2,4.53E2,2.85E2,6.4E1,6.6E1,1.6E1,6E0],"tree_param":{"num_deleted":"0","num_feature":"83","num_nodes":"15","size_leaf_vector":"1"}},{"base_weights":[-7.6523735E-3,-8.4139824E-2,1.8829273E-1,1.5253603E-1,-1.0725006E-1,1.2938964E-1,5.484477E-1,3.018757E-4,4.7291685E-3,-1.864185E-3,-3.258425E-4,1.9040358E-3,2.658697E-4,3.781126E-3,7.766986E-3],"categories":[],"categories_nodes":[],"categories_segments":[],"categories_sizes":[],"default_left":[0,0,0,0,0,0,0,0,0,0,0,0,0,0,0],"id":49,"left_children":[1,3,5,7,9,11,13,-1,-1,-1,-1,-1,-1,-1,-1],"loss_changes":[1.6067284E1,4.233447E0,6.3145237E0,2.690393E0,4.1494827E0,1.6257606E0,1.3392439E0,0E0,0E0,0E0,0E0,0E0,0E0,0E0,0E0],"parents":[2147483647,0,0,1,1,2,2,3,3,4,4,5,5,6,6],"right_children":[2,4,6,8,10,12,14,-1,-1,-1,-1,-1,-1,-1,-1],"split_conditions":[1E1,1E0,1.4E1,7E0,8E0,1E0,1.2863E4,3.018757E-4,4.7291685E-3,-1.864185E-3,-3.258425E-4,1.9040358E-3,2.658697E-4,3.781126E-3,7.766986E-3],"split_indices":[6,43,6,6,6,59,3,0,0,0,0,0,0,0,0],"split_type":[0,0,0,0,0,0,0,0,0,0,0,0,0,0,0],"sum_hessian":[1.07E3,7.7E2,3E2,6.8E1,7.02E2,2.59E2,4.1E1,5E1,1.8E1,3.4E2,3.62E2,1.62E2,9.7E1,2.5E1,1.6E1],"tree_param":{"num_deleted":"0","num_feature":"83","num_nodes":"15","size_leaf_vector":"1"}},{"base_weights":[2.4522434E-3,-4.6358734E-2,4.3404514E-1,-2.2533658E-1,2.2554132E-3,3.5400814E-1,9.916996E-3,-3.470607E-3,-1.746033E-3,1.2445623E-3,-4.315665E-4,6.338617E-3,2.5715204E-3],"categories":[],"categories_nodes":[],"categories_segments":[],"categories_sizes":[],"default_left":[0,0,0,0,0,0,0,0,0,0,0,0,0],"id":50,"left_children":[1,3,5,7,9,11,-1,-1,-1,-1,-1,-1,-1],"loss_changes":[2.2392715E1,8.309825E0,4.4692936E0,1.1991978E0,4.1785135E0,2.4391308E0,0E0,0E0,0E0,0E0,0E0,0E0,0E0],"parents":[2147483647,0,0,1,1,2,2,3,3,4,4,5,5],"right_children":[2,4,6,8,10,12,-1,-1,-1,-1,-1,-1,-1],"split_conditions":[2.378E3,1.083E3,3.766E3,8.28E2,1.946E3,1.958E3,9.916996E-3,-3.470607E-3,-1.746033E-3,1.2445623E-3,-4.315665E-4,6.338617E-3,2.5715204E-3],"split_indices":[2,2,2,2,4,4,0,0,0,0,0,0,0],"split_type":[0,0,0,0,0,0,0,0,0,0,0,0,0],"sum_hessian":[1.061E3,9.54E2,1.07E2,2.03E2,7.51E2,9.5E1,1.2E1,5.8E1,1.45E2,2.03E2,5.48E2,2.3E1,7.2E1],"tree_param":{"num_deleted":"0","num_feature":"83","num_nodes":"13","size_leaf_vector":"1"}},{"base_weights":[-3.9979056E-3,-5.9138324E-2,2.6159188E-1,-1.455986E-1,7.236456E-3,1.7932273E-1,5.85822E-1,1.032709E-3,-1.828293E-3,-2.2541687E-6,5.381276E-3,2.706577E-3,1.1644026E-3,6.645995E-3,2.1717846E-3],"categories":[],"categories_nodes":[],"categories_segments":[],"categories_sizes":[],"default_left":[0,0,0,0,0,0,0,0,0,0,0,0,0,0,0],"id":51,"left_children":[1,3,5,7,9,11,13,-1,-1,-1,-1,-1,-1,-1,-1],"loss_changes":[1.5758558E1,5.1143084E0,4.829664E0,3.604663E0,2.0006497E0,8.242459E-1,9.301729E-1,0E0,0E0,0E0,0E0,0E0,0E0,0E0,0E0],"parents":[2147483647,0,0,1,1,2,2,3,3,4,4,5,5,6,6],"right_children":[2,4,6,8,10,12,14,-1,-1,-1,-1,-1,-1,-1,-1],"split_conditions":[1.1E1,8E0,1.4E1,1E0,1E0,1E0,1E0,1.032709E-3,-1.828293E-3,-2.2541687E-6,5.381276E-3,2.706577E-3,1.1644026E-3,6.645995E-3,2.1717846E-3],"split_indices":[6,6,6,73,49,16,16,0,0,0,0,0,0,0,0],"split_type":[0,0,0,0,0,0,0,0,0,0,0,0,0,0,0],"sum_hessian":[1.074E3,8.9E2,1.84E2,3.86E2,5.04E2,1.48E2,3.6E1,5E1,3.36E2,4.98E2,6E0,5.9E1,8.9E1,2.9E1,7E0],"tree_param":{"num_deleted":"0","num_feature":"83","num_nodes":"15","size_leaf_vector":"1"}},{"base_weights":[2.4407834E-3,-4.5591082E-2,3.445567E-1,-1.5723832E-1,1.278234E-2,2.747332E-1,7.63751E-3,-3.7523462E-3,-1.2086214E-3,6.2469445E-4,-5.460359E-4,5.1546576E-3,2.3548345E-3],"categories":[],"categories_nodes":[],"categories_segments":[],"categories_sizes":[],"default_left":[0,0,0,0,0,0,0,0,0,0,0,0,0],"id":52,"left_children":[1,3,5,7,9,11,-1,-1,-1,-1,-1,-1,-1],"loss_changes":[1.735196E1,6.036967E0,3.5952234E0,2.4763474E0,2.042472E0,9.463186E-1,0E0,0E0,0E0,0E0,0E0,0E0,0E0],"parents":[2147483647,0,0,1,1,2,2,3,3,4,4,5,5],"right_children":[2,4,6,8,10,12,-1,-1,-1,-1,-1,-1,-1],"split_conditions":[2.231E3,1.235E3,3.274E3,8E2,1E0,1E0,7.63751E-3,-3.7523462E-3,-1.2086214E-3,6.2469445E-4,-5.460359E-4,5.1546576E-3,2.3548345E-3],"split_indices":[2,2,2,2,59,43,0,0,0,0,0,0,0],"split_type":[0,0,0,0,0,0,0,0,0,0,0,0,0],"sum_hessian":[1.054E3,9.25E2,1.29E2,3.17E2,6.08E2,1.12E2,1.7E1,4.4E1,2.73E2,3.5E2,2.58E2,1.4E1,9.8E1],"tree_param":{"num_deleted":"0","num_feature":"83","num_nodes":"13","size_leaf_vector":"1"}},{"base_weights":[5.374201E-3,-5.2168045E-2,3.5134944E-1,-2.0751181E-1,-2.032455E-3,4.8130536E-1,1.13403514E-1,-3.874462E-3,-1.5326807E-3,1.6081844E-3,-5.131246E-4,4.024388E-3,7.687629E-3,2.2990652E-3,8.654117E-5],"categories":[],"categories_nodes":[],"categories_segments":[],"categories_sizes":[],"default_left":[0,0,0,0,0,0,0,0,0,0,0,0,0,0,0],"id":53,"left_children":[1,3,5,7,9,11,13,-1,-1,-1,-1,-1,-1,-1,-1],"loss_changes":[2.1220554E1,7.118039E0,4.6456337E0,2.1171684E0,5.561755E0,1.9123592E0,6.6920954E-1,0E0,0E0,0E0,0E0,0E0,0E0,0E0,0E0],"parents":[2147483647,0,0,1,1,2,2,3,3,4,4,5,5,6,6],"right_children":[2,4,6,8,10,12,14,-1,-1,-1,-1,-1,-1,-1,-1],"split_conditions":[2.231E3,1.118E3,-8.937438E1,8.28E2,-8.939334E1,3.274E3,-8.931785E1,-3.874462E-3,-1.5326807E-3,1.6081844E-3,-5.131246E-4,4.024388E-3,7.687629E-3,2.2990652E-3,8.654117E-5],"split_indices":[2,2,10,2,10,2,10,0,0,0,0,0,0,0,0],"split_type":[0,0,0,0,0,0,0,0,0,0,0,0,0,0,0],"sum_hessian":[1.064E3,9.13E2,1.51E2,2.22E2,6.91E2,9.7E1,5.4E1,5E1,1.72E2,1.6E2,5.31E2,7.8E1,1.9E1,2.5E1,2.9E1],"tree_param":{"num_deleted":"0","num_feature":"83","num_nodes":"15","size_leaf_vector":"1"}},{"base_weights":[-2.9716075E-3,-5.2319042E-2,3.297012E-1,7.1282294E-3,-1.6375896E-1,2.5865978E-1,6.957551E-1,-5.802307E-4,7.825891E-4,-4.8908014E-3,-1.3511407E-3,3.360261E-3,3.069539E-4,5.03844E-3,9.686191E-3],"categories":[],"categories_nodes":[],"categories_segments":[],"categories_sizes":[],"default_left":[0,0,0,0,0,0,0,0,0,0,0,0,0,0,0],"id":54,"left_children":[1,3,5,7,9,11,13,-1,-1,-1,-1,-1,-1,-1,-1],"loss_changes":[1.7665041E1,6.208604E0,3.4347296E0,2.8407059E0,2.9718428E0,2.0708232E0,6.64011E-1,0E0,0E0,0E0,0E0,0E0,0E0,0E0,0E0],"parents":[2147483647,0,0,1,1,2,2,3,3,4,4,5,5,6,6],"right_children":[2,4,6,8,10,12,